<?xml version="1.0"?>
<opencv_storage>
<cascade>
  <stageType>BOOST</stageType>
  <featureType>HAAR</featureType>
  <height>20</height>
  <width>20</width>
  <stageParams>
    <boostType>GAB</boostType>
    <minHitRate>9.9500000476837158e-01</minHitRate>
    <maxFalseAlarm>4.0000000596046448e-01</maxFalseAlarm>
    <weightTrimRate>9.4999999999999996e-01</weightTrimRate>
    <maxDepth>1</maxDepth>
    <maxWeakCount>100</maxWeakCount></stageParams>
  <featureParams>
    <maxCatCount>0</maxCatCount>
    <featSize>1</featSize>
    <mode>ALL</mode></featureParams>
  <stageNum>16</stageNum>
  <stages>
    <!-- stage 0 -->
    <_>
      <maxWeakCount>9</maxWeakCount>
      <stageThreshold>-1.2015799283981323e+00</stageThreshold>
      <weakClassifiers>
        <_>
          <internalNodes>
            0 -1 90 2.2420737147331238e-01</internalNodes>
          <leafValues>
            -5.9647578001022339e-01 8.0104714632034302e-01</leafValues></_>
        <_>
          <internalNodes>
            0 -1 5 -3.8739215582609177e-02</internalNodes>
          <leafValues>
            3.7537547945976257e-01 -4.7753709554672241e-01</leafValues></_>
        <_>
          <internalNodes>
            0 -1 76 -1.2499839067459106e-02</internalNodes>
          <leafValues>
            6.3386774063110352e-01 -3.0055761337280273e-01</leafValues></_>
        <_>
          <internalNodes>
            0 -1 69 2.8077987954020500e-02</internalNodes>
          <leafValues>
            2.5023370981216431e-01 -7.3438906669616699e-01</leafValues></_>
        <_>
          <internalNodes>
            0 -1 39 -1.2973190844058990e-01</internalNodes>
          <leafValues>
            -7.6729124784469604e-01 2.3604494333267212e-01</leafValues></_>
        <_>
          <internalNodes>
            0 -1 51 4.6643786132335663e-02</internalNodes>
          <leafValues>
            1.7377902567386627e-01 -6.5478771924972534e-01</leafValues></_>
        <_>
          <internalNodes>
            0 -1 86 -4.8460487276315689e-02</internalNodes>
          <leafValues>
            -8.1896913051605225e-01 1.3640978932380676e-01</leafValues></_>
        <_>
          <internalNodes>
            0 -1 73 -2.7668811380863190e-02</internalNodes>
          <leafValues>
            5.1575046777725220e-01 -2.6389425992965698e-01</leafValues></_>
        <_>
          <internalNodes>
            0 -1 127 1.5030246227979660e-02</internalNodes>
          <leafValues>
            -1.7895050346851349e-01 9.0169548988342285e-01</leafValues></_></weakClassifiers></_>
    <!-- stage 1 -->
    <_>
      <maxWeakCount>12</maxWeakCount>
      <stageThreshold>-1.2903389930725098e+00</stageThreshold>
      <weakClassifiers>
        <_>
          <internalNodes>
            0 -1 91 3.2322263717651367e-01</internalNodes>
          <leafValues>
            -5.6432247161865234e-01 8.3749997615814209e-01</leafValues></_>
        <_>
          <internalNodes>
            0 -1 219 3.3229768276214600e-02</internalNodes>
          <leafValues>
            -3.3900719881057739e-01 4.9958083033561707e-01</leafValues></_>
        <_>
          <internalNodes>
            0 -1 203 2.1417051553726196e-02</internalNodes>
          <leafValues>
            -2.4961072206497192e-01 6.8120855093002319e-01</leafValues></_>
        <_>
          <internalNodes>
            0 -1 200 -1.6668118536472321e-02</internalNodes>
          <leafValues>
            -7.0363825559616089e-01 2.0810408890247345e-01</leafValues></_>
        <_>
          <internalNodes>
            0 -1 99 -6.6390022635459900e-02</internalNodes>
          <leafValues>
            -7.4190056324005127e-01 1.8372862040996552e-01</leafValues></_>
        <_>
          <internalNodes>
            0 -1 10 1.7675152420997620e-01</internalNodes>
          <leafValues>
            1.3758307695388794e-01 -7.9873359203338623e-01</leafValues></_>
        <_>
          <internalNodes>
            0 -1 188 2.3926582187414169e-02</internalNodes>
          <leafValues>
            -2.2276367247104645e-01 7.0605129003524780e-01</leafValues></_>
        <_>
          <internalNodes>
            0 -1 191 -3.3894009888172150e-02</internalNodes>
          <leafValues>
            5.9719121456146240e-01 -1.3303576409816742e-01</leafValues></_>
        <_>
          <internalNodes>
            0 -1 9 7.5191324576735497e-03</internalNodes>
          <leafValues>
            1.9005241990089417e-01 -5.4840558767318726e-01</leafValues></_>
        <_>
          <internalNodes>
            0 -1 129 -7.6219094917178154e-03</internalNodes>
          <leafValues>
            -6.4531731605529785e-01 1.4946199953556061e-01</leafValues></_>
        <_>
          <internalNodes>
            0 -1 37 5.3702695295214653e-03</internalNodes>
          <leafValues>
            -2.3121151328086853e-01 3.6596551537513733e-01</leafValues></_>
        <_>
          <internalNodes>
            0 -1 29 -1.1107100173830986e-02</internalNodes>
          <leafValues>
            5.0631129741668701e-01 -2.3686715960502625e-01</leafValues></_></weakClassifiers></_>
    <!-- stage 2 -->
    <_>
      <maxWeakCount>12</maxWeakCount>
      <stageThreshold>-1.0222630500793457e+00</stageThreshold>
      <weakClassifiers>
        <_>
          <internalNodes>
            0 -1 122 1.8835465610027313e-01</internalNodes>
          <leafValues>
            -5.5067569017410278e-01 9.0140843391418457e-01</leafValues></_>
        <_>
          <internalNodes>
            0 -1 49 7.3799253441393375e-03</internalNodes>
          <leafValues>
            -2.5449413061141968e-01 5.2704530954360962e-01</leafValues></_>
        <_>
          <internalNodes>
            0 -1 6 -2.8261104226112366e-01</internalNodes>
          <leafValues>
            4.8508787155151367e-01 -2.6238867640495300e-01</leafValues></_>
        <_>
          <internalNodes>
            0 -1 214 -2.8572198003530502e-02</internalNodes>
          <leafValues>
            6.8503654003143311e-01 -1.6702894866466522e-01</leafValues></_>
        <_>
          <internalNodes>
            0 -1 179 -1.0898573324084282e-02</internalNodes>
          <leafValues>
            4.7946941852569580e-01 -2.1000963449478149e-01</leafValues></_>
        <_>
          <internalNodes>
            0 -1 198 1.6613179817795753e-02</internalNodes>
          <leafValues>
            -1.9498559832572937e-01 5.7497936487197876e-01</leafValues></_>
        <_>
          <internalNodes>
            0 -1 163 -2.3467959836125374e-02</internalNodes>
          <leafValues>
            4.2626699805259705e-01 -2.0887933671474457e-01</leafValues></_>
        <_>
          <internalNodes>
            0 -1 126 -1.8517574295401573e-02</internalNodes>
          <leafValues>
            5.9645235538482666e-01 -1.5218551456928253e-01</leafValues></_>
        <_>
          <internalNodes>
            0 -1 212 -5.0307915080338717e-04</internalNodes>
          <leafValues>
            -6.4075821638107300e-01 1.6792324185371399e-01</leafValues></_>
        <_>
          <internalNodes>
            0 -1 212 1.9923868239857256e-04</internalNodes>
          <leafValues>
            2.7536040544509888e-01 -4.4717583060264587e-01</leafValues></_>
        <_>
          <internalNodes>
            0 -1 32 8.6507871747016907e-03</internalNodes>
          <leafValues>
            -1.9696612656116486e-01 5.5931675434112549e-01</leafValues></_>
        <_>
          <internalNodes>
            0 -1 23 1.1165481805801392e-01</internalNodes>
          <leafValues>
            1.2997774779796600e-01 -7.5329172611236572e-01</leafValues></_></weakClassifiers></_>
    <!-- stage 3 -->
    <_>
      <maxWeakCount>15</maxWeakCount>
      <stageThreshold>-1.1628814935684204e+00</stageThreshold>
      <weakClassifiers>
        <_>
          <internalNodes>
            0 -1 77 3.3558851480484009e-01</internalNodes>
          <leafValues>
            -5.3049290180206299e-01 8.6046510934829712e-01</leafValues></_>
        <_>
          <internalNodes>
            0 -1 0 -3.5801678313873708e-04</internalNodes>
          <leafValues>
            -6.4430028200149536e-01 1.4611899852752686e-01</leafValues></_>
        <_>
          <internalNodes>
            0 -1 111 -1.6567926853895187e-02</internalNodes>
          <leafValues>
            6.1062359809875488e-01 -1.7885662615299225e-01</leafValues></_>
        <_>
          <internalNodes>
            0 -1 229 2.7074750512838364e-02</internalNodes>
          <leafValues>
            -2.2471337020397186e-01 4.9519038200378418e-01</leafValues></_>
        <_>
          <internalNodes>
            0 -1 167 5.8283442631363869e-03</internalNodes>
          <leafValues>
            -2.7315333485603333e-01 3.5788932442665100e-01</leafValues></_>
        <_>
          <internalNodes>
            0 -1 1 1.0278352419845760e-04</internalNodes>
          <leafValues>
            3.0005040764808655e-01 -4.0779155492782593e-01</leafValues></_>
        <_>
          <internalNodes>
            0 -1 209 6.7185759544372559e-03</internalNodes>
          <leafValues>
            -2.1374979615211487e-01 4.9643439054489136e-01</leafValues></_>
        <_>
          <internalNodes>
            0 -1 248 1.3643258716911077e-04</internalNodes>
          <leafValues>
            2.4565993249416351e-01 -4.1376370191574097e-01</leafValues></_>
        <_>
          <internalNodes>
            0 -1 42 -1.4993080869317055e-02</internalNodes>
          <leafValues>
            -5.6009846925735474e-01 1.5649352967739105e-01</leafValues></_>
        <_>
          <internalNodes>
            0 -1 140 2.6834119111299515e-02</internalNodes>
          <leafValues>
            -1.4907056093215942e-01 6.2647044658660889e-01</leafValues></_>
        <_>
          <internalNodes>
            0 -1 85 -1.5520360320806503e-02</internalNodes>
          <leafValues>
            6.0540777444839478e-01 -1.4358128607273102e-01</leafValues></_>
        <_>
          <internalNodes>
            0 -1 15 -1.8564978381618857e-04</internalNodes>
          <leafValues>
            -4.2353180050849915e-01 2.2289969027042389e-01</leafValues></_>
        <_>
          <internalNodes>
            0 -1 232 -4.3441513553261757e-03</internalNodes>
          <leafValues>
            -6.5103620290756226e-01 1.4443930983543396e-01</leafValues></_>
        <_>
          <internalNodes>
            0 -1 118 1.8201187252998352e-02</internalNodes>
          <leafValues>
            1.1690962314605713e-01 -6.7392998933792114e-01</leafValues></_>
        <_>
          <internalNodes>
            0 -1 247 1.5332492068409920e-02</internalNodes>
          <leafValues>
            9.8535075783729553e-02 -7.4163502454757690e-01</leafValues></_></weakClassifiers></_>
    <!-- stage 4 -->
    <_>
      <maxWeakCount>14</maxWeakCount>
      <stageThreshold>-1.4457515478134155e+00</stageThreshold>
      <weakClassifiers>
        <_>
          <internalNodes>
            0 -1 75 -1.9618371129035950e-01</internalNodes>
          <leafValues>
            6.2874251604080200e-01 -5.4270923137664795e-01</leafValues></_>
        <_>
          <internalNodes>
            0 -1 7 -6.2611130997538567e-03</internalNodes>
          <leafValues>
            1.8808698654174805e-01 -4.8730805516242981e-01</leafValues></_>
        <_>
          <internalNodes>
            0 -1 173 -3.1316116452217102e-02</internalNodes>
          <leafValues>
            5.3519785404205322e-01 -1.7911785840988159e-01</leafValues></_>
        <_>
          <internalNodes>
            0 -1 194 1.6506997868418694e-02</internalNodes>
          <leafValues>
            -2.0673891901969910e-01 5.2993613481521606e-01</leafValues></_>
        <_>
          <internalNodes>
            0 -1 192 -6.8443916738033295e-02</internalNodes>
          <leafValues>
            -7.3120081424713135e-01 1.4791783690452576e-01</leafValues></_>
        <_>
          <internalNodes>
            0 -1 249 8.2154385745525360e-04</internalNodes>
          <leafValues>
            1.5397307276725769e-01 -6.2671434879302979e-01</leafValues></_>
        <_>
          <internalNodes>
            0 -1 95 6.9150894880294800e-02</internalNodes>
          <leafValues>
            -1.9981101155281067e-01 5.5817717313766479e-01</leafValues></_>
        <_>
          <internalNodes>
            0 -1 121 -1.8466867506504059e-02</internalNodes>
          <leafValues>
            -4.8077082633972168e-01 2.0860178768634796e-01</leafValues></_>
        <_>
          <internalNodes>
            0 -1 47 4.1879691183567047e-02</internalNodes>
          <leafValues>
            1.7847283184528351e-01 -4.9127221107482910e-01</leafValues></_>
        <_>
          <internalNodes>
            0 -1 190 2.6926016435027122e-02</internalNodes>
          <leafValues>
            -1.9158594310283661e-01 5.0080102682113647e-01</leafValues></_>
        <_>
          <internalNodes>
            0 -1 240 -1.6770530492067337e-03</internalNodes>
          <leafValues>
            -6.3304793834686279e-01 1.3352873921394348e-01</leafValues></_>
        <_>
          <internalNodes>
            0 -1 223 6.2385336495935917e-03</internalNodes>
          <leafValues>
            -2.1138663589954376e-01 4.5875564217567444e-01</leafValues></_>
        <_>
          <internalNodes>
            0 -1 114 -2.5631086900830269e-02</internalNodes>
          <leafValues>
            5.9327650070190430e-01 -1.4281335473060608e-01</leafValues></_>
        <_>
          <internalNodes>
            0 -1 116 5.5230520665645599e-03</internalNodes>
          <leafValues>
            -1.2423427402973175e-01 5.6297022104263306e-01</leafValues></_></weakClassifiers></_>
    <!-- stage 5 -->
    <_>
      <maxWeakCount>15</maxWeakCount>
      <stageThreshold>-1.1380217075347900e+00</stageThreshold>
      <weakClassifiers>
        <_>
          <internalNodes>
            0 -1 160 6.8481206893920898e-02</internalNodes>
          <leafValues>
            -5.2530539035797119e-01 4.3333333730697632e-01</leafValues></_>
        <_>
          <internalNodes>
            0 -1 159 2.6983808726072311e-02</internalNodes>
          <leafValues>
            -3.8869336247444153e-01 2.9807129502296448e-01</leafValues></_>
        <_>
          <internalNodes>
            0 -1 216 1.2536314316093922e-02</internalNodes>
          <leafValues>
            -1.5479163825511932e-01 6.1830359697341919e-01</leafValues></_>
        <_>
          <internalNodes>
            0 -1 24 -1.9749160856008530e-02</internalNodes>
          <leafValues>
            6.8237853050231934e-01 -1.1670552194118500e-01</leafValues></_>
        <_>
          <internalNodes>
            0 -1 3 -3.1609088182449341e-04</internalNodes>
          <leafValues>
            -4.1183632612228394e-01 1.9359555840492249e-01</leafValues></_>
        <_>
          <internalNodes>
            0 -1 74 -5.2533693611621857e-02</internalNodes>
          <leafValues>
            -5.5161827802658081e-01 1.7336590588092804e-01</leafValues></_>
        <_>
          <internalNodes>
            0 -1 180 -5.8037307113409042e-02</internalNodes>
          <leafValues>
            4.6602737903594971e-01 -1.8503393232822418e-01</leafValues></_>
        <_>
          <internalNodes>
            0 -1 25 9.3514472246170044e-03</internalNodes>
          <leafValues>
            1.1655101925134659e-01 -6.7811220884323120e-01</leafValues></_>
        <_>
          <internalNodes>
            0 -1 242 -1.6054393490776420e-03</internalNodes>
          <leafValues>
            -6.6876631975173950e-01 1.1700672656297684e-01</leafValues></_>
        <_>
          <internalNodes>
            0 -1 108 4.1823953390121460e-02</internalNodes>
          <leafValues>
            -1.5480434894561768e-01 5.1988548040390015e-01</leafValues></_>
        <_>
          <internalNodes>
            0 -1 8 -1.1766009032726288e-02</internalNodes>
          <leafValues>
            2.8549429774284363e-01 -3.0499184131622314e-01</leafValues></_>
        <_>
          <internalNodes>
            0 -1 31 -3.8701690733432770e-02</internalNodes>
          <leafValues>
            5.0837182998657227e-01 -1.5410995483398438e-01</leafValues></_>
        <_>
          <internalNodes>
            0 -1 137 4.6128621324896812e-03</internalNodes>
          <leafValues>
            -2.1495470404624939e-01 3.5246127843856812e-01</leafValues></_>
        <_>
          <internalNodes>
            0 -1 197 6.4803818240761757e-03</internalNodes>
          <leafValues>
            -1.4516754448413849e-01 5.4517298936843872e-01</leafValues></_>
        <_>
          <internalNodes>
            0 -1 241 -1.1843454558402300e-03</internalNodes>
          <leafValues>
            -5.5736684799194336e-01 1.6144557297229767e-01</leafValues></_></weakClassifiers></_>
    <!-- stage 6 -->
    <_>
      <maxWeakCount>19</maxWeakCount>
      <stageThreshold>-1.1964919567108154e+00</stageThreshold>
      <weakClassifiers>
        <_>
          <internalNodes>
            0 -1 202 -3.8642577826976776e-02</internalNodes>
          <leafValues>
            2.1708184480667114e-01 -5.5980861186981201e-01</leafValues></_>
        <_>
          <internalNodes>
            0 -1 176 -8.9996419847011566e-03</internalNodes>
          <leafValues>
            3.0709454417228699e-01 -3.2005846500396729e-01</leafValues></_>
        <_>
          <internalNodes>
            0 -1 34 1.8030151259154081e-03</internalNodes>
          <leafValues>
            1.4007642865180969e-01 -6.5858113765716553e-01</leafValues></_>
        <_>
          <internalNodes>
            0 -1 71 8.1861289800144732e-05</internalNodes>
          <leafValues>
            1.8875375390052795e-01 -4.6195617318153381e-01</leafValues></_>
        <_>
          <internalNodes>
            0 -1 22 3.6906227469444275e-02</internalNodes>
          <leafValues>
            1.6657140851020813e-01 -5.1987868547439575e-01</leafValues></_>
        <_>
          <internalNodes>
            0 -1 164 2.7620871551334858e-03</internalNodes>
          <leafValues>
            -2.3954831063747406e-01 3.4580835700035095e-01</leafValues></_>
        <_>
          <internalNodes>
            0 -1 143 -1.3872524723410606e-02</internalNodes>
          <leafValues>
            7.1105271577835083e-01 -1.0703607648611069e-01</leafValues></_>
        <_>
          <internalNodes>
            0 -1 34 -1.7689252272248268e-03</internalNodes>
          <leafValues>
            -6.4566564559936523e-01 1.3799896836280823e-01</leafValues></_>
        <_>
          <internalNodes>
            0 -1 171 8.9253466576337814e-03</internalNodes>
          <leafValues>
            -2.1234175562858582e-01 3.7682884931564331e-01</leafValues></_>
        <_>
          <internalNodes>
            0 -1 110 1.4004651166033000e-04</internalNodes>
          <leafValues>
            1.5756106376647949e-01 -4.4741341471672058e-01</leafValues></_>
        <_>
          <internalNodes>
            0 -1 88 -4.2853029444813728e-03</internalNodes>
          <leafValues>
            -5.8205550909042358e-01 1.2112226337194443e-01</leafValues></_>
        <_>
          <internalNodes>
            0 -1 112 2.7011943981051445e-02</internalNodes>
          <leafValues>
            1.1605784296989441e-01 -7.2121238708496094e-01</leafValues></_>
        <_>
          <internalNodes>
            0 -1 13 2.8972762823104858e-01</internalNodes>
          <leafValues>
            -1.1745396256446838e-01 8.0118882656097412e-01</leafValues></_>
        <_>
          <internalNodes>
            0 -1 238 4.3959729373455048e-03</internalNodes>
          <leafValues>
            -1.3326522707939148e-01 5.1087671518325806e-01</leafValues></_>
        <_>
          <internalNodes>
            0 -1 235 -1.7045015469193459e-02</internalNodes>
          <leafValues>
            -9.3327063322067261e-01 8.3200469613075256e-02</leafValues></_>
        <_>
          <internalNodes>
            0 -1 158 -9.4174649566411972e-03</internalNodes>
          <leafValues>
            5.5939859151840210e-01 -1.5702553093433380e-01</leafValues></_>
        <_>
          <internalNodes>
            0 -1 92 -1.4715524390339851e-02</internalNodes>
          <leafValues>
            -5.8947134017944336e-01 1.3886965811252594e-01</leafValues></_>
        <_>
          <internalNodes>
            0 -1 196 1.5035242540761828e-04</internalNodes>
          <leafValues>
            1.6750693321228027e-01 -4.0432250499725342e-01</leafValues></_>
        <_>
          <internalNodes>
            0 -1 57 -6.0383241361705586e-05</internalNodes>
          <leafValues>
            -3.4795776009559631e-01 2.2610905766487122e-01</leafValues></_></weakClassifiers></_>
    <!-- stage 7 -->
    <_>
      <maxWeakCount>21</maxWeakCount>
      <stageThreshold>-1.1754485368728638e+00</stageThreshold>
      <weakClassifiers>
        <_>
          <internalNodes>
            0 -1 210 3.1503740698099136e-02</internalNodes>
          <leafValues>
            -4.9915111064910889e-01 4.3243244290351868e-01</leafValues></_>
        <_>
          <internalNodes>
            0 -1 87 -1.8638435751199722e-02</internalNodes>
          <leafValues>
            5.9412753582000732e-01 -1.6952472925186157e-01</leafValues></_>
        <_>
          <internalNodes>
            0 -1 14 -1.1181879043579102e-01</internalNodes>
          <leafValues>
            3.2484993338584900e-01 -3.0088642239570618e-01</leafValues></_>
        <_>
          <internalNodes>
            0 -1 124 5.4893302731215954e-03</internalNodes>
          <leafValues>
            -2.0594140887260437e-01 3.8143563270568848e-01</leafValues></_>
        <_>
          <internalNodes>
            0 -1 250 -3.4786172909662127e-04</internalNodes>
          <leafValues>
            -3.6401757597923279e-01 1.9993285834789276e-01</leafValues></_>
        <_>
          <internalNodes>
            0 -1 80 1.4142779633402824e-02</internalNodes>
          <leafValues>
            1.9450160861015320e-01 -4.0016683936119080e-01</leafValues></_>
        <_>
          <internalNodes>
            0 -1 82 -1.6541678458452225e-02</internalNodes>
          <leafValues>
            -5.6222373247146606e-01 1.1000797152519226e-01</leafValues></_>
        <_>
          <internalNodes>
            0 -1 96 2.0751982927322388e-02</internalNodes>
          <leafValues>
            -1.5865620970726013e-01 4.8977783322334290e-01</leafValues></_>
        <_>
          <internalNodes>
            0 -1 130 -7.3381406255066395e-03</internalNodes>
          <leafValues>
            3.8618791103363037e-01 -1.8022330105304718e-01</leafValues></_>
        <_>
          <internalNodes>
            0 -1 64 8.1077292561531067e-03</internalNodes>
          <leafValues>
            1.5270096063613892e-01 -4.7798535227775574e-01</leafValues></_>
        <_>
          <internalNodes>
            0 -1 230 -4.9494467675685883e-03</internalNodes>
          <leafValues>
            5.1762467622756958e-01 -1.5622138977050781e-01</leafValues></_>
        <_>
          <internalNodes>
            0 -1 149 1.3521721959114075e-01</internalNodes>
          <leafValues>
            -9.4607293605804443e-02 6.5487509965896606e-01</leafValues></_>
        <_>
          <internalNodes>
            0 -1 52 4.2012333869934082e-03</internalNodes>
          <leafValues>
            -1.7106841504573822e-01 3.8090887665748596e-01</leafValues></_>
        <_>
          <internalNodes>
            0 -1 206 6.8288445472717285e-03</internalNodes>
          <leafValues>
            1.1328269541263580e-01 -6.2655055522918701e-01</leafValues></_>
        <_>
          <internalNodes>
            0 -1 204 -6.2771392986178398e-03</internalNodes>
          <leafValues>
            -6.5734404325485229e-01 8.9970394968986511e-02</leafValues></_>
        <_>
          <internalNodes>
            0 -1 63 3.1315766274929047e-02</internalNodes>
          <leafValues>
            -2.0680098235607147e-01 3.6738178133964539e-01</leafValues></_>
        <_>
          <internalNodes>
            0 -1 43 -2.0810570567846298e-02</internalNodes>
          <leafValues>
            -3.5458141565322876e-01 1.9431827962398529e-01</leafValues></_>
        <_>
          <internalNodes>
            0 -1 20 1.5945948660373688e-02</internalNodes>
          <leafValues>
            -1.4069135487079620e-01 5.3582406044006348e-01</leafValues></_>
        <_>
          <internalNodes>
            0 -1 21 -8.3064762875437737e-03</internalNodes>
          <leafValues>
            2.3097595572471619e-01 -3.3668422698974609e-01</leafValues></_>
        <_>
          <internalNodes>
            0 -1 2 -7.3855608934536576e-04</internalNodes>
          <leafValues>
            -4.5425078272819519e-01 1.3661806285381317e-01</leafValues></_>
        <_>
          <internalNodes>
            0 -1 195 6.6512147895991802e-03</internalNodes>
          <leafValues>
            -1.5719664096832275e-01 4.2836061120033264e-01</leafValues></_></weakClassifiers></_>
    <!-- stage 8 -->
    <_>
      <maxWeakCount>23</maxWeakCount>
      <stageThreshold>-1.2787305116653442e+00</stageThreshold>
      <weakClassifiers>
        <_>
          <internalNodes>
            0 -1 226 2.4180453270673752e-02</internalNodes>
          <leafValues>
            -5.3701967000961304e-01 1.8918919563293457e-01</leafValues></_>
        <_>
          <internalNodes>
            0 -1 222 -1.0695429518818855e-02</internalNodes>
          <leafValues>
            5.4775762557983398e-01 -1.8679842352867126e-01</leafValues></_>
        <_>
          <internalNodes>
            0 -1 154 7.7821195125579834e-02</internalNodes>
          <leafValues>
            1.0063136368989944e-01 -6.7322689294815063e-01</leafValues></_>
        <_>
          <internalNodes>
            0 -1 246 -2.4868670152500272e-04</internalNodes>
          <leafValues>
            -4.3285626173019409e-01 1.7085444927215576e-01</leafValues></_>
        <_>
          <internalNodes>
            0 -1 72 -5.2244728431105614e-03</internalNodes>
          <leafValues>
            5.1592433452606201e-01 -1.3355125486850739e-01</leafValues></_>
        <_>
          <internalNodes>
            0 -1 221 9.6063949167728424e-03</internalNodes>
          <leafValues>
            -1.5602348744869232e-01 4.6124610304832458e-01</leafValues></_>
        <_>
          <internalNodes>
            0 -1 144 6.3202381134033203e-02</internalNodes>
          <leafValues>
            1.2252599000930786e-01 -5.7453948259353638e-01</leafValues></_>
        <_>
          <internalNodes>
            0 -1 155 3.8608439266681671e-02</internalNodes>
          <leafValues>
            -1.4553824067115784e-01 5.9729415178298950e-01</leafValues></_>
        <_>
          <internalNodes>
            0 -1 0 1.1182126763742417e-04</internalNodes>
          <leafValues>
            2.3902285099029541e-01 -3.0586338043212891e-01</leafValues></_>
        <_>
          <internalNodes>
            0 -1 103 -1.0548547841608524e-02</internalNodes>
          <leafValues>
            5.7478970289230347e-01 -1.3412015140056610e-01</leafValues></_>
        <_>
          <internalNodes>
            0 -1 61 -1.5293440222740173e-01</internalNodes>
          <leafValues>
            4.5168766379356384e-01 -1.5153138339519501e-01</leafValues></_>
        <_>
          <internalNodes>
            0 -1 42 1.1309126392006874e-02</internalNodes>
          <leafValues>
            1.3465252518653870e-01 -5.7595455646514893e-01</leafValues></_>
        <_>
          <internalNodes>
            0 -1 139 2.1283578127622604e-02</internalNodes>
          <leafValues>
            -2.7426114678382874e-01 2.4091890454292297e-01</leafValues></_>
        <_>
          <internalNodes>
            0 -1 40 1.6012825071811676e-02</internalNodes>
          <leafValues>
            -1.3407121598720551e-01 4.7444099187850952e-01</leafValues></_>
        <_>
          <internalNodes>
            0 -1 26 5.6667970493435860e-03</internalNodes>
          <leafValues>
            1.6067922115325928e-01 -4.3718138337135315e-01</leafValues></_>
        <_>
          <internalNodes>
            0 -1 131 1.9414177164435387e-02</internalNodes>
          <leafValues>
            -1.1970990151166916e-01 5.8179348707199097e-01</leafValues></_>
        <_>
          <internalNodes>
            0 -1 148 6.3688620924949646e-02</internalNodes>
          <leafValues>
            -8.3489865064620972e-02 6.8020832538604736e-01</leafValues></_>
        <_>
          <internalNodes>
            0 -1 128 1.2625735253095627e-02</internalNodes>
          <leafValues>
            1.8595924973487854e-01 -3.8960593938827515e-01</leafValues></_>
        <_>
          <internalNodes>
            0 -1 16 1.4541561715304852e-02</internalNodes>
          <leafValues>
            7.7112391591072083e-02 -7.0720994472503662e-01</leafValues></_>
        <_>
          <internalNodes>
            0 -1 93 -1.5024155378341675e-01</internalNodes>
          <leafValues>
            6.2642192840576172e-01 -1.1222527176141739e-01</leafValues></_>
        <_>
          <internalNodes>
            0 -1 142 -2.3836968466639519e-03</internalNodes>
          <leafValues>
            3.5340836644172668e-01 -1.9840766489505768e-01</leafValues></_>
        <_>
          <internalNodes>
            0 -1 84 7.8952051699161530e-03</internalNodes>
          <leafValues>
            -1.5132027864456177e-01 4.6319392323493958e-01</leafValues></_>
        <_>
          <internalNodes>
            0 -1 141 2.7672592550516129e-03</internalNodes>
          <leafValues>
            1.7145207524299622e-01 -4.2947050929069519e-01</leafValues></_></weakClassifiers></_>
    <!-- stage 9 -->
    <_>
      <maxWeakCount>22</maxWeakCount>
      <stageThreshold>-1.2881435155868530e+00</stageThreshold>
      <weakClassifiers>
        <_>
          <internalNodes>
            0 -1 181 6.9092921912670135e-02</internalNodes>
          <leafValues>
            -4.9537426233291626e-01 4.7445255517959595e-01</leafValues></_>
        <_>
          <internalNodes>
            0 -1 132 1.3275133445858955e-02</internalNodes>
          <leafValues>
            -2.5015151500701904e-01 3.6183521151542664e-01</leafValues></_>
        <_>
          <internalNodes>
            0 -1 243 2.7897682040929794e-02</internalNodes>
          <leafValues>
            1.0322365909814835e-01 -6.4233469963073730e-01</leafValues></_>
        <_>
          <internalNodes>
            0 -1 102 5.6099286302924156e-03</internalNodes>
          <leafValues>
            1.7081463336944580e-01 -6.3439983129501343e-01</leafValues></_>
        <_>
          <internalNodes>
            0 -1 106 1.1167201213538647e-02</internalNodes>
          <leafValues>
            -1.6899795830249786e-01 5.4766118526458740e-01</leafValues></_>
        <_>
          <internalNodes>
            0 -1 166 1.4030428603291512e-02</internalNodes>
          <leafValues>
            7.0472493767738342e-02 -8.7904214859008789e-01</leafValues></_>
        <_>
          <internalNodes>
            0 -1 156 1.1574995703995228e-02</internalNodes>
          <leafValues>
            -1.5159805119037628e-01 4.9776721000671387e-01</leafValues></_>
        <_>
          <internalNodes>
            0 -1 136 5.7842014357447624e-03</internalNodes>
          <leafValues>
            -1.9610585272312164e-01 3.9379560947418213e-01</leafValues></_>
        <_>
          <internalNodes>
            0 -1 120 -2.0990919438190758e-04</internalNodes>
          <leafValues>
            -3.0513080954551697e-01 2.3185539245605469e-01</leafValues></_>
        <_>
          <internalNodes>
            0 -1 153 8.4484118269756436e-04</internalNodes>
          <leafValues>
            1.1599113047122955e-01 -4.5553624629974365e-01</leafValues></_>
        <_>
          <internalNodes>
            0 -1 237 1.5006797388195992e-02</internalNodes>
          <leafValues>
            -9.5221847295761108e-02 6.6122394800186157e-01</leafValues></_>
        <_>
          <internalNodes>
            0 -1 70 3.0770353623665869e-04</internalNodes>
          <leafValues>
            1.8113072216510773e-01 -3.7898954749107361e-01</leafValues></_>
        <_>
          <internalNodes>
            0 -1 184 -2.5093478616327047e-03</internalNodes>
          <leafValues>
            4.2492842674255371e-01 -1.5664258599281311e-01</leafValues></_>
        <_>
          <internalNodes>
            0 -1 218 6.8557485938072205e-03</internalNodes>
          <leafValues>
            -1.5143367648124695e-01 4.2899155616760254e-01</leafValues></_>
        <_>
          <internalNodes>
            0 -1 113 1.0651785880327225e-02</internalNodes>
          <leafValues>
            -1.1789295077323914e-01 4.9372929334640503e-01</leafValues></_>
        <_>
          <internalNodes>
            0 -1 187 9.5292758196592331e-03</internalNodes>
          <leafValues>
            1.0110579431056976e-01 -5.8413904905319214e-01</leafValues></_>
        <_>
          <internalNodes>
            0 -1 35 -5.9889280237257481e-04</internalNodes>
          <leafValues>
            -5.4613512754440308e-01 1.2328984588384628e-01</leafValues></_>
        <_>
          <internalNodes>
            0 -1 65 1.8474570242688060e-04</internalNodes>
          <leafValues>
            1.7064855992794037e-01 -3.7403145432472229e-01</leafValues></_>
        <_>
          <internalNodes>
            0 -1 185 5.9028826653957367e-03</internalNodes>
          <leafValues>
            -2.3913988471031189e-01 2.4553482234477997e-01</leafValues></_>
        <_>
          <internalNodes>
            0 -1 146 -2.8715836815536022e-03</internalNodes>
          <leafValues>
            2.9983112215995789e-01 -2.3425479233264923e-01</leafValues></_>
        <_>
          <internalNodes>
            0 -1 220 2.0441494416445494e-03</internalNodes>
          <leafValues>
            -2.4020171165466309e-01 2.7828681468963623e-01</leafValues></_>
        <_>
          <internalNodes>
            0 -1 199 1.2422287836670876e-02</internalNodes>
          <leafValues>
            -1.6144560277462006e-01 4.5696926116943359e-01</leafValues></_></weakClassifiers></_>
    <!-- stage 10 -->
    <_>
      <maxWeakCount>23</maxWeakCount>
      <stageThreshold>-1.3163981437683105e+00</stageThreshold>
      <weakClassifiers>
        <_>
          <internalNodes>
            0 -1 30 -2.8733648359775543e-02</internalNodes>
          <leafValues>
            2.3651452362537384e-01 -5.3548389673233032e-01</leafValues></_>
        <_>
          <internalNodes>
            0 -1 174 -1.7072539776563644e-02</internalNodes>
          <leafValues>
            -7.3233520984649658e-01 7.4419796466827393e-02</leafValues></_>
        <_>
          <internalNodes>
            0 -1 35 3.6821412504650652e-04</internalNodes>
          <leafValues>
            1.3695238530635834e-01 -5.0250506401062012e-01</leafValues></_>
        <_>
          <internalNodes>
            0 -1 123 -2.5287348777055740e-02</internalNodes>
          <leafValues>
            -5.3581255674362183e-01 1.5884074568748474e-01</leafValues></_>
        <_>
          <internalNodes>
            0 -1 62 5.0523340702056885e-02</internalNodes>
          <leafValues>
            1.4057630300521851e-01 -4.8113906383514404e-01</leafValues></_>
        <_>
          <internalNodes>
            0 -1 44 -3.7054006010293961e-02</internalNodes>
          <leafValues>
            -3.4920844435691833e-01 2.2257393598556519e-01</leafValues></_>
        <_>
          <internalNodes>
            0 -1 211 2.0632390805985779e-04</internalNodes>
          <leafValues>
            1.5518741309642792e-01 -4.0515783429145813e-01</leafValues></_>
        <_>
          <internalNodes>
            0 -1 213 -1.2907980999443680e-04</internalNodes>
          <leafValues>
            -4.1642680764198303e-01 1.8275214731693268e-01</leafValues></_>
        <_>
          <internalNodes>
            0 -1 33 1.0037767700850964e-02</internalNodes>
          <leafValues>
            -1.2247039377689362e-01 5.9228968620300293e-01</leafValues></_>
        <_>
          <internalNodes>
            0 -1 161 -1.2331464327871799e-02</internalNodes>
          <leafValues>
            4.6880948543548584e-01 -1.4271001517772675e-01</leafValues></_>
        <_>
          <internalNodes>
            0 -1 236 2.0864496007561684e-02</internalNodes>
          <leafValues>
            9.0095877647399902e-02 -7.5257045030593872e-01</leafValues></_>
        <_>
          <internalNodes>
            0 -1 157 7.5253946706652641e-03</internalNodes>
          <leafValues>
            -2.4893791973590851e-01 2.7966454625129700e-01</leafValues></_>
        <_>
          <internalNodes>
            0 -1 162 -1.0435825586318970e-01</internalNodes>
          <leafValues>
            7.9480701684951782e-01 -9.6172437071800232e-02</leafValues></_>
        <_>
          <internalNodes>
            0 -1 59 1.5571416588500142e-04</internalNodes>
          <leafValues>
            1.8426088988780975e-01 -3.9068910479545593e-01</leafValues></_>
        <_>
          <internalNodes>
            0 -1 105 1.8571235239505768e-02</internalNodes>
          <leafValues>
            1.5477725863456726e-01 -4.3089321255683899e-01</leafValues></_>
        <_>
          <internalNodes>
            0 -1 55 -1.4935353538021445e-03</internalNodes>
          <leafValues>
            5.0219541788101196e-01 -1.5889769792556763e-01</leafValues></_>
        <_>
          <internalNodes>
            0 -1 41 4.8772003501653671e-03</internalNodes>
          <leafValues>
            -1.5250876545906067e-01 4.5474722981452942e-01</leafValues></_>
        <_>
          <internalNodes>
            0 -1 215 7.5661418959498405e-03</internalNodes>
          <leafValues>
            9.6632726490497589e-02 -7.0341837406158447e-01</leafValues></_>
        <_>
          <internalNodes>
            0 -1 224 7.5699202716350555e-03</internalNodes>
          <leafValues>
            -1.9107815623283386e-01 3.5905745625495911e-01</leafValues></_>
        <_>
          <internalNodes>
            0 -1 182 1.6012564301490784e-02</internalNodes>
          <leafValues>
            -9.5053829252719879e-02 6.2096494436264038e-01</leafValues></_>
        <_>
          <internalNodes>
            0 -1 134 -3.9618968730792403e-04</internalNodes>
          <leafValues>
            -2.9481858015060425e-01 2.2411479055881500e-01</leafValues></_>
        <_>
          <internalNodes>
            0 -1 107 1.0630879551172256e-03</internalNodes>
          <leafValues>
            -1.7268000543117523e-01 3.9786100387573242e-01</leafValues></_>
        <_>
          <internalNodes>
            0 -1 178 5.1309709670022130e-04</internalNodes>
          <leafValues>
            -3.6571252346038818e-01 2.0329563319683075e-01</leafValues></_></weakClassifiers></_>
    <!-- stage 11 -->
    <_>
      <maxWeakCount>23</maxWeakCount>
      <stageThreshold>-1.2123094797134399e+00</stageThreshold>
      <weakClassifiers>
        <_>
          <internalNodes>
            0 -1 12 -5.0221085548400879e-02</internalNodes>
          <leafValues>
            4.1007193922996521e-01 -4.8946925997734070e-01</leafValues></_>
        <_>
          <internalNodes>
            0 -1 36 -7.2697829455137253e-03</internalNodes>
          <leafValues>
            3.4971448779106140e-01 -2.1723611652851105e-01</leafValues></_>
        <_>
          <internalNodes>
            0 -1 125 -3.5253666341304779e-02</internalNodes>
          <leafValues>
            3.3531129360198975e-01 -2.2188532352447510e-01</leafValues></_>
        <_>
          <internalNodes>
            0 -1 245 -6.2033257563598454e-05</internalNodes>
          <leafValues>
            -2.9298913478851318e-01 2.1928559243679047e-01</leafValues></_>
        <_>
          <internalNodes>
            0 -1 244 4.6465086052194238e-04</internalNodes>
          <leafValues>
            1.2170073390007019e-01 -5.2669841051101685e-01</leafValues></_>
        <_>
          <internalNodes>
            0 -1 104 5.7061198167502880e-03</internalNodes>
          <leafValues>
            -1.7955955862998962e-01 3.3657693862915039e-01</leafValues></_>
        <_>
          <internalNodes>
            0 -1 27 9.3723963946104050e-03</internalNodes>
          <leafValues>
            -1.8313205242156982e-01 3.9052179455757141e-01</leafValues></_>
        <_>
          <internalNodes>
            0 -1 58 3.8124944549053907e-03</internalNodes>
          <leafValues>
            -1.5061219036579132e-01 3.7340316176414490e-01</leafValues></_>
        <_>
          <internalNodes>
            0 -1 117 -2.1033959463238716e-02</internalNodes>
          <leafValues>
            8.0390703678131104e-01 -7.6666645705699921e-02</leafValues></_>
        <_>
          <internalNodes>
            0 -1 94 7.6509900391101837e-03</internalNodes>
          <leafValues>
            -1.5280786156654358e-01 4.1452693939208984e-01</leafValues></_>
        <_>
          <internalNodes>
            0 -1 56 1.2822374701499939e-02</internalNodes>
          <leafValues>
            -9.1593086719512939e-02 6.7502838373184204e-01</leafValues></_>
        <_>
          <internalNodes>
            0 -1 89 1.5857629477977753e-02</internalNodes>
          <leafValues>
            -3.0135157704353333e-01 2.3088134825229645e-01</leafValues></_>
        <_>
          <internalNodes>
            0 -1 46 3.7093088030815125e-02</internalNodes>
          <leafValues>
            -1.3605195283889771e-01 5.8459174633026123e-01</leafValues></_>
        <_>
          <internalNodes>
            0 -1 168 -1.4907371951267123e-03</internalNodes>
          <leafValues>
            2.3728318512439728e-01 -3.1204634904861450e-01</leafValues></_>
        <_>
          <internalNodes>
            0 -1 11 -1.2699230865109712e-04</internalNodes>
          <leafValues>
            -4.4909727573394775e-01 1.6963104903697968e-01</leafValues></_>
        <_>
          <internalNodes>
            0 -1 119 -8.7655641138553619e-02</internalNodes>
          <leafValues>
            6.0742819309234619e-01 -1.1212465167045593e-01</leafValues></_>
        <_>
          <internalNodes>
            0 -1 228 -7.0275127887725830e-02</internalNodes>
          <leafValues>
            8.2429021596908569e-01 -7.1717917919158936e-02</leafValues></_>
        <_>
          <internalNodes>
            0 -1 67 -5.9313043020665646e-03</internalNodes>
          <leafValues>
            7.4777776002883911e-01 -7.3739029467105865e-02</leafValues></_>
        <_>
          <internalNodes>
            0 -1 217 9.9323838949203491e-03</internalNodes>
          <leafValues>
            1.1949874460697174e-01 -5.8310842514038086e-01</leafValues></_>
        <_>
          <internalNodes>
            0 -1 66 3.1572586158290505e-04</internalNodes>
          <leafValues>
            1.5506668388843536e-01 -3.8070088624954224e-01</leafValues></_>
        <_>
          <internalNodes>
            0 -1 78 -3.5686842165887356e-03</internalNodes>
          <leafValues>
            -3.9849531650543213e-01 1.4787858724594116e-01</leafValues></_>
        <_>
          <internalNodes>
            0 -1 207 4.6723913401365280e-03</internalNodes>
          <leafValues>
            -2.8983211517333984e-01 2.4703967571258545e-01</leafValues></_>
        <_>
          <internalNodes>
            0 -1 19 1.6401084139943123e-02</internalNodes>
          <leafValues>
            9.2653453350067139e-02 -7.4076157808303833e-01</leafValues></_></weakClassifiers></_>
    <!-- stage 12 -->
    <_>
      <maxWeakCount>19</maxWeakCount>
      <stageThreshold>-1.1367655992507935e+00</stageThreshold>
      <weakClassifiers>
        <_>
          <internalNodes>
            0 -1 239 8.2781426608562469e-03</internalNodes>
          <leafValues>
            -5.2930402755737305e-01 2.3076923191547394e-01</leafValues></_>
        <_>
          <internalNodes>
            0 -1 135 3.8753193803131580e-03</internalNodes>
          <leafValues>
            2.0164391398429871e-01 -3.6824071407318115e-01</leafValues></_>
        <_>
          <internalNodes>
            0 -1 231 -1.0751226218417287e-03</internalNodes>
          <leafValues>
            3.9591768383979797e-01 -2.1006317436695099e-01</leafValues></_>
        <_>
          <internalNodes>
            0 -1 48 1.7732463311403990e-03</internalNodes>
          <leafValues>
            -2.4383391439914703e-01 2.8799864649772644e-01</leafValues></_>
        <_>
          <internalNodes>
            0 -1 97 3.5409233532845974e-03</internalNodes>
          <leafValues>
            1.7357450723648071e-01 -3.9966675639152527e-01</leafValues></_>
        <_>
          <internalNodes>
            0 -1 38 -1.1739356815814972e-01</internalNodes>
          <leafValues>
            -8.0219191312789917e-01 1.0166796296834946e-01</leafValues></_>
        <_>
          <internalNodes>
            0 -1 183 2.5670880451798439e-02</internalNodes>
          <leafValues>
            -1.8978010118007660e-01 4.5030713081359863e-01</leafValues></_>
        <_>
          <internalNodes>
            0 -1 115 -1.4540429413318634e-01</internalNodes>
          <leafValues>
            -7.2788327932357788e-01 1.5873150527477264e-01</leafValues></_>
        <_>
          <internalNodes>
            0 -1 53 2.4144288152456284e-02</internalNodes>
          <leafValues>
            -2.0653115212917328e-01 5.0307476520538330e-01</leafValues></_>
        <_>
          <internalNodes>
            0 -1 233 6.5554180182516575e-03</internalNodes>
          <leafValues>
            -9.9155135452747345e-02 6.6513180732727051e-01</leafValues></_>
        <_>
          <internalNodes>
            0 -1 169 4.0367251494899392e-04</internalNodes>
          <leafValues>
            2.0939995348453522e-01 -3.9735892415046692e-01</leafValues></_>
        <_>
          <internalNodes>
            0 -1 17 3.0114073306322098e-02</internalNodes>
          <leafValues>
            -1.1438965797424316e-01 6.3794171810150146e-01</leafValues></_>
        <_>
          <internalNodes>
            0 -1 100 -2.0548142492771149e-02</internalNodes>
          <leafValues>
            2.6916056871414185e-01 -3.2972058653831482e-01</leafValues></_>
        <_>
          <internalNodes>
            0 -1 205 1.1317830649204552e-04</internalNodes>
          <leafValues>
            2.7424824237823486e-01 -2.9097038507461548e-01</leafValues></_>
        <_>
          <internalNodes>
            0 -1 150 7.5224167667329311e-03</internalNodes>
          <leafValues>
            -2.1991041302680969e-01 3.7378525733947754e-01</leafValues></_>
        <_>
          <internalNodes>
            0 -1 4 -1.7272647470235825e-02</internalNodes>
          <leafValues>
            4.5509725809097290e-01 -1.8584491312503815e-01</leafValues></_>
        <_>
          <internalNodes>
            0 -1 18 -4.4621713459491730e-03</internalNodes>
          <leafValues>
            5.9329521656036377e-01 -1.5355966985225677e-01</leafValues></_>
        <_>
          <internalNodes>
            0 -1 208 1.2763557955622673e-02</internalNodes>
          <leafValues>
            -1.3487699627876282e-01 5.5921208858489990e-01</leafValues></_>
        <_>
          <internalNodes>
            0 -1 151 1.1532396078109741e-02</internalNodes>
          <leafValues>
            -1.1555753648281097e-01 7.3784065246582031e-01</leafValues></_></weakClassifiers></_>
    <!-- stage 13 -->
    <_>
      <maxWeakCount>15</maxWeakCount>
      <stageThreshold>-1.3884540796279907e+00</stageThreshold>
      <weakClassifiers>
        <_>
          <internalNodes>
            0 -1 227 4.4300623238086700e-02</internalNodes>
          <leafValues>
            -4.8713827133178711e-01 1.</leafValues></_>
        <_>
          <internalNodes>
            0 -1 201 2.6680510491132736e-03</internalNodes>
          <leafValues>
            -2.5181815028190613e-01 4.6618962287902832e-01</leafValues></_>
        <_>
          <internalNodes>
            0 -1 138 -3.1202638638205826e-05</internalNodes>
          <leafValues>
            -3.9072096347808838e-01 2.9536157846450806e-01</leafValues></_>
        <_>
          <internalNodes>
            0 -1 147 -8.0917740706354380e-04</internalNodes>
          <leafValues>
            -3.6213329434394836e-01 3.5557278990745544e-01</leafValues></_>
        <_>
          <internalNodes>
            0 -1 101 -1.5650747343897820e-02</internalNodes>
          <leafValues>
            8.3282393217086792e-01 -1.3640616834163666e-01</leafValues></_>
        <_>
          <internalNodes>
            0 -1 145 3.9924709126353264e-03</internalNodes>
          <leafValues>
            -1.7554733157157898e-01 6.5674024820327759e-01</leafValues></_>
        <_>
          <internalNodes>
            0 -1 234 -2.7032359503209591e-03</internalNodes>
          <leafValues>
            -7.7538830041885376e-01 2.1014179289340973e-01</leafValues></_>
        <_>
          <internalNodes>
            0 -1 225 2.1055921912193298e-02</internalNodes>
          <leafValues>
            -2.0979522168636322e-01 6.9162762165069580e-01</leafValues></_>
        <_>
          <internalNodes>
            0 -1 177 -2.1808639168739319e-02</internalNodes>
          <leafValues>
            -6.2325596809387207e-01 1.7584204673767090e-01</leafValues></_>
        <_>
          <internalNodes>
            0 -1 170 -1.1240212246775627e-02</internalNodes>
          <leafValues>
            8.0204236507415771e-01 -1.4275109767913818e-01</leafValues></_>
        <_>
          <internalNodes>
            0 -1 193 4.1642710566520691e-02</internalNodes>
          <leafValues>
            -1.9291976094245911e-01 6.3430911302566528e-01</leafValues></_>
        <_>
          <internalNodes>
            0 -1 172 4.3263835832476616e-03</internalNodes>
          <leafValues>
            -1.5282773971557617e-01 7.5454670190811157e-01</leafValues></_>
        <_>
          <internalNodes>
            0 -1 81 -6.1243546952027828e-05</internalNodes>
          <leafValues>
            -3.1372460722923279e-01 4.2885455489158630e-01</leafValues></_>
        <_>
          <internalNodes>
            0 -1 98 3.3885436132550240e-03</internalNodes>
          <leafValues>
            -1.6711418330669403e-01 6.8073070049285889e-01</leafValues></_>
        <_>
          <internalNodes>
            0 -1 152 -7.8578367829322815e-03</internalNodes>
          <leafValues>
            3.6802369356155396e-01 -3.5709208250045776e-01</leafValues></_></weakClassifiers></_>
    <!-- stage 14 -->
    <_>
      <maxWeakCount>9</maxWeakCount>
      <stageThreshold>-1.2297625541687012e+00</stageThreshold>
      <weakClassifiers>
        <_>
          <internalNodes>
            0 -1 45 1.3203462585806847e-02</internalNodes>
          <leafValues>
            -5.7446807622909546e-01 1.</leafValues></_>
        <_>
          <internalNodes>
            0 -1 68 5.6125805713236332e-05</internalNodes>
          <leafValues>
            5.0673055648803711e-01 -4.0365633368492126e-01</leafValues></_>
        <_>
          <internalNodes>
            0 -1 189 -1.3671192526817322e-01</internalNodes>
          <leafValues>
            -8.1677401065826416e-01 2.2383983433246613e-01</leafValues></_>
        <_>
          <internalNodes>
            0 -1 175 7.5456397607922554e-03</internalNodes>
          <leafValues>
            -2.4713079631328583e-01 8.9290910959243774e-01</leafValues></_>
        <_>
          <internalNodes>
            0 -1 54 -2.5409268215298653e-02</internalNodes>
          <leafValues>
            1. -2.7329447865486145e-01</leafValues></_>
        <_>
          <internalNodes>
            0 -1 186 -1.8798213568516076e-04</internalNodes>
          <leafValues>
            -4.5974069833755493e-01 4.5936465263366699e-01</leafValues></_>
        <_>
          <internalNodes>
            0 -1 165 8.6128129623830318e-05</internalNodes>
          <leafValues>
            6.1769390106201172e-01 -3.5061314702033997e-01</leafValues></_>
        <_>
          <internalNodes>
            0 -1 133 4.5326477847993374e-03</internalNodes>
          <leafValues>
            2.6428446173667908e-01 -8.8063323497772217e-01</leafValues></_>
        <_>
          <internalNodes>
            0 -1 83 -5.8106072247028351e-03</internalNodes>
          <leafValues>
            8.3272296190261841e-01 -3.2808870077133179e-01</leafValues></_></weakClassifiers></_>
    <!-- stage 15 -->
    <_>
      <maxWeakCount>5</maxWeakCount>
      <stageThreshold>-1.9422098398208618e+00</stageThreshold>
      <weakClassifiers>
        <_>
          <internalNodes>
            0 -1 79 -2.6361984200775623e-03</internalNodes>
          <leafValues>
            1. -6.8029063940048218e-01</leafValues></_>
        <_>
          <internalNodes>
            0 -1 50 -1.1529757082462311e-01</internalNodes>
          <leafValues>
            -7.5543165206909180e-01 5.8151632547378540e-01</leafValues></_>
        <_>
          <internalNodes>
            0 -1 28 -1.3027255190536380e-03</internalNodes>
          <leafValues>
            -7.9607206583023071e-01 6.4206767082214355e-01</leafValues></_>
        <_>
          <internalNodes>
            0 -1 109 6.5835285931825638e-03</internalNodes>
          <leafValues>
            6.2573522329330444e-01 -6.7751014232635498e-01</leafValues></_>
        <_>
          <internalNodes>
            0 -1 60 4.6685792767675593e-05</internalNodes>
          <leafValues>
            1. -4.7104510664939880e-01</leafValues></_></weakClassifiers></_></stages>
  <features>
    <_>
      <rects>
        <_>
          0 0 2 2 -1.</_>
        <_>
          1 0 1 2 2.</_></rects>
      <tilted>0</tilted></_>
    <_>
      <rects>
        <_>
          0 0 2 3 -1.</_>
        <_>
          1 0 1 3 2.</_></rects>
      <tilted>0</tilted></_>
    <_>
      <rects>
        <_>
          0 0 4 1 -1.</_>
        <_>
          2 0 2 1 2.</_></rects>
      <tilted>0</tilted></_>
    <_>
      <rects>
        <_>
          0 0 2 2 -1.</_>
        <_>
          0 1 2 1 2.</_></rects>
      <tilted>0</tilted></_>
    <_>
      <rects>
        <_>
          0 0 6 12 -1.</_>
        <_>
          0 0 3 6 2.</_>
        <_>
          3 6 3 6 2.</_></rects>
      <tilted>0</tilted></_>
    <_>
      <rects>
        <_>
          0 0 20 5 -1.</_>
        <_>
          5 0 10 5 2.</_></rects>
      <tilted>0</tilted></_>
    <_>
      <rects>
        <_>
          0 0 18 9 -1.</_>
        <_>
          6 3 6 3 9.</_></rects>
      <tilted>0</tilted></_>
    <_>
      <rects>
        <_>
          0 0 14 4 -1.</_>
        <_>
          7 0 7 4 2.</_></rects>
      <tilted>0</tilted></_>
    <_>
      <rects>
        <_>
          0 0 8 6 -1.</_>
        <_>
          0 3 8 3 2.</_></rects>
      <tilted>0</tilted></_>
    <_>
      <rects>
        <_>
          0 0 18 1 -1.</_>
        <_>
          9 0 9 1 2.</_></rects>
      <tilted>0</tilted></_>
    <_>
      <rects>
        <_>
          0 0 9 20 -1.</_>
        <_>
          0 10 9 10 2.</_></rects>
      <tilted>0</tilted></_>
    <_>
      <rects>
        <_>
          0 1 3 1 -1.</_>
        <_>
          1 1 1 1 3.</_></rects>
      <tilted>0</tilted></_>
    <_>
      <rects>
        <_>
          0 1 20 1 -1.</_>
        <_>
          5 1 10 1 2.</_></rects>
      <tilted>0</tilted></_>
    <_>
      <rects>
        <_>
          0 1 18 9 -1.</_>
        <_>
          6 4 6 3 9.</_></rects>
      <tilted>0</tilted></_>
    <_>
      <rects>
        <_>
          0 1 12 19 -1.</_>
        <_>
          6 1 6 19 2.</_></rects>
      <tilted>0</tilted></_>
    <_>
      <rects>
        <_>
          0 2 1 2 -1.</_>
        <_>
          0 3 1 1 2.</_></rects>
      <tilted>0</tilted></_>
    <_>
      <rects>
        <_>
          0 2 4 6 -1.</_>
        <_>
          0 4 4 2 3.</_></rects>
      <tilted>0</tilted></_>
    <_>
      <rects>
        <_>
          0 3 20 4 -1.</_>
        <_>
          5 3 10 4 2.</_></rects>
      <tilted>0</tilted></_>
    <_>
      <rects>
        <_>
          0 4 3 5 -1.</_>
        <_>
          1 4 1 5 3.</_></rects>
      <tilted>0</tilted></_>
    <_>
      <rects>
        <_>
          0 4 2 9 -1.</_>
        <_>
          0 7 2 3 3.</_></rects>
      <tilted>0</tilted></_>
    <_>
      <rects>
        <_>
          0 4 20 2 -1.</_>
        <_>
          5 4 10 2 2.</_></rects>
      <tilted>0</tilted></_>
    <_>
      <rects>
        <_>
          0 4 10 4 -1.</_>
        <_>
          5 4 5 4 2.</_></rects>
      <tilted>0</tilted></_>
    <_>
      <rects>
        <_>
          0 4 20 8 -1.</_>
        <_>
          0 4 10 4 2.</_>
        <_>
          10 8 10 4 2.</_></rects>
      <tilted>0</tilted></_>
    <_>
      <rects>
        <_>
          0 5 18 14 -1.</_>
        <_>
          0 5 9 7 2.</_>
        <_>
          9 12 9 7 2.</_></rects>
      <tilted>0</tilted></_>
    <_>
      <rects>
        <_>
          0 6 3 8 -1.</_>
        <_>
          1 6 1 8 3.</_></rects>
      <tilted>0</tilted></_>
    <_>
      <rects>
        <_>
          0 6 2 6 -1.</_>
        <_>
          0 8 2 2 3.</_></rects>
      <tilted>0</tilted></_>
    <_>
      <rects>
        <_>
          0 6 2 10 -1.</_>
        <_>
          0 11 2 5 2.</_></rects>
      <tilted>0</tilted></_>
    <_>
      <rects>
        <_>
          0 7 4 8 -1.</_>
        <_>
          1 7 2 8 2.</_></rects>
      <tilted>0</tilted></_>
    <_>
      <rects>
        <_>
          0 7 2 3 -1.</_>
        <_>
          0 8 2 1 3.</_></rects>
      <tilted>0</tilted></_>
    <_>
      <rects>
        <_>
          0 8 4 4 -1.</_>
        <_>
          2 8 2 4 2.</_></rects>
      <tilted>0</tilted></_>
    <_>
      <rects>
        <_>
          0 8 4 10 -1.</_>
        <_>
          0 8 2 5 2.</_>
        <_>
          2 13 2 5 2.</_></rects>
      <tilted>0</tilted></_>
    <_>
      <rects>
        <_>
          0 8 6 12 -1.</_>
        <_>
          0 8 3 6 2.</_>
        <_>
          3 14 3 6 2.</_></rects>
      <tilted>0</tilted></_>
    <_>
      <rects>
        <_>
          0 9 3 4 -1.</_>
        <_>
          1 9 1 4 3.</_></rects>
      <tilted>0</tilted></_>
    <_>
      <rects>
        <_>
          0 9 3 5 -1.</_>
        <_>
          1 9 1 5 3.</_></rects>
      <tilted>0</tilted></_>
    <_>
      <rects>
        <_>
          0 9 2 3 -1.</_>
        <_>
          0 10 2 1 3.</_></rects>
      <tilted>0</tilted></_>
    <_>
      <rects>
        <_>
          0 10 1 2 -1.</_>
        <_>
          0 11 1 1 2.</_></rects>
      <tilted>0</tilted></_>
    <_>
      <rects>
        <_>
          0 10 2 9 -1.</_>
        <_>
          1 10 1 9 2.</_></rects>
      <tilted>0</tilted></_>
    <_>
      <rects>
        <_>
          0 10 6 2 -1.</_>
        <_>
          2 10 2 2 3.</_></rects>
      <tilted>0</tilted></_>
    <_>
      <rects>
        <_>
          0 11 18 5 -1.</_>
        <_>
          9 11 9 5 2.</_></rects>
      <tilted>0</tilted></_>
    <_>
      <rects>
        <_>
          0 11 20 8 -1.</_>
        <_>
          10 11 10 8 2.</_></rects>
      <tilted>0</tilted></_>
    <_>
      <rects>
        <_>
          0 12 4 8 -1.</_>
        <_>
          0 12 2 4 2.</_>
        <_>
          2 16 2 4 2.</_></rects>
      <tilted>0</tilted></_>
    <_>
      <rects>
        <_>
          0 14 4 4 -1.</_>
        <_>
          0 14 2 2 2.</_>
        <_>
          2 16 2 2 2.</_></rects>
      <tilted>0</tilted></_>
    <_>
      <rects>
        <_>
          0 18 20 1 -1.</_>
        <_>
          10 18 10 1 2.</_></rects>
      <tilted>0</tilted></_>
    <_>
      <rects>
        <_>
          1 0 18 4 -1.</_>
        <_>
          10 0 9 4 2.</_></rects>
      <tilted>0</tilted></_>
    <_>
      <rects>
        <_>
          1 0 18 20 -1.</_>
        <_>
          1 0 9 10 2.</_>
        <_>
          10 10 9 10 2.</_></rects>
      <tilted>0</tilted></_>
    <_>
      <rects>
        <_>
          1 1 8 4 -1.</_>
        <_>
          1 1 4 2 2.</_>
        <_>
          5 3 4 2 2.</_></rects>
      <tilted>0</tilted></_>
    <_>
      <rects>
        <_>
          1 1 18 6 -1.</_>
        <_>
          7 1 6 6 3.</_></rects>
      <tilted>0</tilted></_>
    <_>
      <rects>
        <_>
          1 1 18 10 -1.</_>
        <_>
          1 1 9 5 2.</_>
        <_>
          10 6 9 5 2.</_></rects>
      <tilted>0</tilted></_>
    <_>
      <rects>
        <_>
          1 3 10 2 -1.</_>
        <_>
          1 3 5 1 2.</_>
        <_>
          6 4 5 1 2.</_></rects>
      <tilted>0</tilted></_>
    <_>
      <rects>
        <_>
          1 8 4 4 -1.</_>
        <_>
          2 8 2 4 2.</_></rects>
      <tilted>0</tilted></_>
    <_>
      <rects>
        <_>
          1 8 12 10 -1.</_>
        <_>
          5 8 4 10 3.</_></rects>
      <tilted>0</tilted></_>
    <_>
      <rects>
        <_>
          1 8 18 4 -1.</_>
        <_>
          10 8 9 4 2.</_></rects>
      <tilted>0</tilted></_>
    <_>
      <rects>
        <_>
          1 9 4 2 -1.</_>
        <_>
          2 9 2 2 2.</_></rects>
      <tilted>0</tilted></_>
    <_>
      <rects>
        <_>
          1 9 6 6 -1.</_>
        <_>
          3 9 2 6 3.</_></rects>
      <tilted>0</tilted></_>
    <_>
      <rects>
        <_>
          1 10 6 6 -1.</_>
        <_>
          1 10 3 3 2.</_>
        <_>
          4 13 3 3 2.</_></rects>
      <tilted>0</tilted></_>
    <_>
      <rects>
        <_>
          1 14 2 2 -1.</_>
        <_>
          1 14 1 1 2.</_>
        <_>
          2 15 1 1 2.</_></rects>
      <tilted>0</tilted></_>
    <_>
      <rects>
        <_>
          1 14 4 2 -1.</_>
        <_>
          3 14 2 2 2.</_></rects>
      <tilted>0</tilted></_>
    <_>
      <rects>
        <_>
          1 15 1 4 -1.</_>
        <_>
          1 17 1 2 2.</_></rects>
      <tilted>0</tilted></_>
    <_>
      <rects>
        <_>
          1 17 8 2 -1.</_>
        <_>
          1 18 8 1 2.</_></rects>
      <tilted>0</tilted></_>
    <_>
      <rects>
        <_>
          1 19 2 1 -1.</_>
        <_>
          2 19 1 1 2.</_></rects>
      <tilted>0</tilted></_>
    <_>
      <rects>
        <_>
          2 0 4 4 -1.</_>
        <_>
          3 0 2 4 2.</_></rects>
      <tilted>0</tilted></_>
    <_>
      <rects>
        <_>
          2 0 6 12 -1.</_>
        <_>
          4 4 2 4 9.</_></rects>
      <tilted>0</tilted></_>
    <_>
      <rects>
        <_>
          2 1 18 16 -1.</_>
        <_>
          2 1 9 8 2.</_>
        <_>
          11 9 9 8 2.</_></rects>
      <tilted>0</tilted></_>
    <_>
      <rects>
        <_>
          2 2 8 8 -1.</_>
        <_>
          2 2 4 4 2.</_>
        <_>
          6 6 4 4 2.</_></rects>
      <tilted>0</tilted></_>
    <_>
      <rects>
        <_>
          2 4 16 1 -1.</_>
        <_>
          10 4 8 1 2.</_></rects>
      <tilted>0</tilted></_>
    <_>
      <rects>
        <_>
          2 5 1 3 -1.</_>
        <_>
          2 6 1 1 3.</_></rects>
      <tilted>0</tilted></_>
    <_>
      <rects>
        <_>
          2 9 1 2 -1.</_>
        <_>
          2 10 1 1 2.</_></rects>
      <tilted>0</tilted></_>
    <_>
      <rects>
        <_>
          2 13 2 4 -1.</_>
        <_>
          2 13 1 2 2.</_>
        <_>
          3 15 1 2 2.</_></rects>
      <tilted>0</tilted></_>
    <_>
      <rects>
        <_>
          2 15 3 1 -1.</_>
        <_>
          3 16 1 1 3.</_></rects>
      <tilted>1</tilted></_>
    <_>
      <rects>
        <_>
          2 17 16 3 -1.</_>
        <_>
          10 17 8 3 2.</_></rects>
      <tilted>0</tilted></_>
    <_>
      <rects>
        <_>
          2 19 4 1 -1.</_>
        <_>
          4 19 2 1 2.</_></rects>
      <tilted>0</tilted></_>
    <_>
      <rects>
        <_>
          3 0 2 1 -1.</_>
        <_>
          4 0 1 1 2.</_></rects>
      <tilted>0</tilted></_>
    <_>
      <rects>
        <_>
          3 1 3 2 -1.</_>
        <_>
          3 2 3 1 2.</_></rects>
      <tilted>0</tilted></_>
    <_>
      <rects>
        <_>
          3 2 6 3 -1.</_>
        <_>
          5 4 2 3 3.</_></rects>
      <tilted>1</tilted></_>
    <_>
      <rects>
        <_>
          3 2 14 12 -1.</_>
        <_>
          3 2 7 6 2.</_>
        <_>
          10 8 7 6 2.</_></rects>
      <tilted>0</tilted></_>
    <_>
      <rects>
        <_>
          3 2 14 9 -1.</_>
        <_>
          3 5 14 3 3.</_></rects>
      <tilted>0</tilted></_>
    <_>
      <rects>
        <_>
          3 3 4 6 -1.</_>
        <_>
          3 3 2 3 2.</_>
        <_>
          5 6 2 3 2.</_></rects>
      <tilted>0</tilted></_>
    <_>
      <rects>
        <_>
          3 6 14 9 -1.</_>
        <_>
          3 9 14 3 3.</_></rects>
      <tilted>0</tilted></_>
    <_>
      <rects>
        <_>
          3 10 16 2 -1.</_>
        <_>
          3 10 8 1 2.</_>
        <_>
          11 11 8 1 2.</_></rects>
      <tilted>0</tilted></_>
    <_>
      <rects>
        <_>
          3 12 3 8 -1.</_>
        <_>
          3 14 3 4 2.</_></rects>
      <tilted>0</tilted></_>
    <_>
      <rects>
        <_>
          3 12 6 2 -1.</_>
        <_>
          3 12 3 2 2.</_></rects>
      <tilted>1</tilted></_>
    <_>
      <rects>
        <_>
          3 13 3 7 -1.</_>
        <_>
          4 13 1 7 3.</_></rects>
      <tilted>0</tilted></_>
    <_>
      <rects>
        <_>
          3 13 4 3 -1.</_>
        <_>
          3 13 2 3 2.</_></rects>
      <tilted>1</tilted></_>
    <_>
      <rects>
        <_>
          3 16 11 3 -1.</_>
        <_>
          3 17 11 1 3.</_></rects>
      <tilted>0</tilted></_>
    <_>
      <rects>
        <_>
          4 0 10 3 -1.</_>
        <_>
          4 1 10 1 3.</_></rects>
      <tilted>0</tilted></_>
    <_>
      <rects>
        <_>
          4 0 12 3 -1.</_>
        <_>
          4 1 12 1 3.</_></rects>
      <tilted>0</tilted></_>
    <_>
      <rects>
        <_>
          4 0 13 4 -1.</_>
        <_>
          4 0 13 2 2.</_></rects>
      <tilted>1</tilted></_>
    <_>
      <rects>
        <_>
          4 1 3 3 -1.</_>
        <_>
          5 2 1 3 3.</_></rects>
      <tilted>1</tilted></_>
    <_>
      <rects>
        <_>
          4 1 3 2 -1.</_>
        <_>
          4 1 3 1 2.</_></rects>
      <tilted>1</tilted></_>
    <_>
      <rects>
        <_>
          4 1 16 5 -1.</_>
        <_>
          12 1 8 5 2.</_></rects>
      <tilted>0</tilted></_>
    <_>
      <rects>
        <_>
          4 4 11 12 -1.</_>
        <_>
          4 8 11 4 3.</_></rects>
      <tilted>0</tilted></_>
    <_>
      <rects>
        <_>
          4 4 13 12 -1.</_>
        <_>
          4 8 13 4 3.</_></rects>
      <tilted>0</tilted></_>
    <_>
      <rects>
        <_>
          4 6 12 2 -1.</_>
        <_>
          10 6 6 2 2.</_></rects>
      <tilted>0</tilted></_>
    <_>
      <rects>
        <_>
          4 7 6 12 -1.</_>
        <_>
          6 11 2 4 9.</_></rects>
      <tilted>0</tilted></_>
    <_>
      <rects>
        <_>
          4 9 3 3 -1.</_>
        <_>
          5 10 1 3 3.</_></rects>
      <tilted>1</tilted></_>
    <_>
      <rects>
        <_>
          4 11 11 9 -1.</_>
        <_>
          4 14 11 3 3.</_></rects>
      <tilted>0</tilted></_>
    <_>
      <rects>
        <_>
          4 12 4 4 -1.</_>
        <_>
          4 12 4 2 2.</_></rects>
      <tilted>1</tilted></_>
    <_>
      <rects>
        <_>
          4 13 10 3 -1.</_>
        <_>
          9 13 5 3 2.</_></rects>
      <tilted>0</tilted></_>
    <_>
      <rects>
        <_>
          5 0 2 8 -1.</_>
        <_>
          5 0 1 4 2.</_>
        <_>
          6 4 1 4 2.</_></rects>
      <tilted>0</tilted></_>
    <_>
      <rects>
        <_>
          5 0 3 20 -1.</_>
        <_>
          5 10 3 10 2.</_></rects>
      <tilted>0</tilted></_>
    <_>
      <rects>
        <_>
          5 0 15 5 -1.</_>
        <_>
          10 0 5 5 3.</_></rects>
      <tilted>0</tilted></_>
    <_>
      <rects>
        <_>
          5 0 8 3 -1.</_>
        <_>
          5 1 8 1 3.</_></rects>
      <tilted>0</tilted></_>
    <_>
      <rects>
        <_>
          5 1 1 4 -1.</_>
        <_>
          5 1 1 2 2.</_></rects>
      <tilted>1</tilted></_>
    <_>
      <rects>
        <_>
          5 7 1 9 -1.</_>
        <_>
          5 10 1 3 3.</_></rects>
      <tilted>0</tilted></_>
    <_>
      <rects>
        <_>
          5 7 5 3 -1.</_>
        <_>
          4 8 5 1 3.</_></rects>
      <tilted>1</tilted></_>
    <_>
      <rects>
        <_>
          5 7 10 12 -1.</_>
        <_>
          10 7 5 12 2.</_></rects>
      <tilted>0</tilted></_>
    <_>
      <rects>
        <_>
          5 8 3 3 -1.</_>
        <_>
          6 9 1 1 9.</_></rects>
      <tilted>0</tilted></_>
    <_>
      <rects>
        <_>
          5 11 7 2 -1.</_>
        <_>
          5 12 7 1 2.</_></rects>
      <tilted>0</tilted></_>
    <_>
      <rects>
        <_>
          5 12 8 8 -1.</_>
        <_>
          5 14 8 4 2.</_></rects>
      <tilted>0</tilted></_>
    <_>
      <rects>
        <_>
          5 13 3 4 -1.</_>
        <_>
          6 14 1 4 3.</_></rects>
      <tilted>1</tilted></_>
    <_>
      <rects>
        <_>
          5 16 2 1 -1.</_>
        <_>
          6 16 1 1 2.</_></rects>
      <tilted>0</tilted></_>
    <_>
      <rects>
        <_>
          6 0 3 5 -1.</_>
        <_>
          7 1 1 5 3.</_></rects>
      <tilted>1</tilted></_>
    <_>
      <rects>
        <_>
          6 0 3 6 -1.</_>
        <_>
          6 0 3 3 2.</_></rects>
      <tilted>1</tilted></_>
    <_>
      <rects>
        <_>
          6 0 7 4 -1.</_>
        <_>
          6 1 7 2 2.</_></rects>
      <tilted>0</tilted></_>
    <_>
      <rects>
        <_>
          6 1 3 6 -1.</_>
        <_>
          7 2 1 6 3.</_></rects>
      <tilted>1</tilted></_>
    <_>
      <rects>
        <_>
          6 1 12 18 -1.</_>
        <_>
          9 1 6 18 2.</_></rects>
      <tilted>0</tilted></_>
    <_>
      <rects>
        <_>
          6 2 3 1 -1.</_>
        <_>
          7 3 1 1 3.</_></rects>
      <tilted>1</tilted></_>
    <_>
      <rects>
        <_>
          6 2 8 3 -1.</_>
        <_>
          6 3 8 1 3.</_></rects>
      <tilted>0</tilted></_>
    <_>
      <rects>
        <_>
          6 3 8 3 -1.</_>
        <_>
          10 3 4 3 2.</_></rects>
      <tilted>0</tilted></_>
    <_>
      <rects>
        <_>
          6 5 11 6 -1.</_>
        <_>
          6 7 11 2 3.</_></rects>
      <tilted>0</tilted></_>
    <_>
      <rects>
        <_>
          6 6 2 5 -1.</_>
        <_>
          7 6 1 5 2.</_></rects>
      <tilted>0</tilted></_>
    <_>
      <rects>
        <_>
          6 6 8 9 -1.</_>
        <_>
          10 6 4 9 2.</_></rects>
      <tilted>0</tilted></_>
    <_>
      <rects>
        <_>
          6 6 8 9 -1.</_>
        <_>
          6 9 8 3 3.</_></rects>
      <tilted>0</tilted></_>
    <_>
      <rects>
        <_>
          6 7 8 11 -1.</_>
        <_>
          10 7 4 11 2.</_></rects>
      <tilted>0</tilted></_>
    <_>
      <rects>
        <_>
          6 8 1 6 -1.</_>
        <_>
          6 10 1 2 3.</_></rects>
      <tilted>0</tilted></_>
    <_>
      <rects>
        <_>
          6 9 3 9 -1.</_>
        <_>
          7 12 1 3 9.</_></rects>
      <tilted>0</tilted></_>
    <_>
      <rects>
        <_>
          6 12 1 6 -1.</_>
        <_>
          4 14 1 2 3.</_></rects>
      <tilted>1</tilted></_>
    <_>
      <rects>
        <_>
          6 16 7 3 -1.</_>
        <_>
          6 17 7 1 3.</_></rects>
      <tilted>0</tilted></_>
    <_>
      <rects>
        <_>
          7 0 8 16 -1.</_>
        <_>
          9 0 4 16 2.</_></rects>
      <tilted>0</tilted></_>
    <_>
      <rects>
        <_>
          7 0 8 2 -1.</_>
        <_>
          11 0 4 2 2.</_></rects>
      <tilted>0</tilted></_>
    <_>
      <rects>
        <_>
          7 1 1 8 -1.</_>
        <_>
          7 3 1 4 2.</_></rects>
      <tilted>0</tilted></_>
    <_>
      <rects>
        <_>
          7 1 4 4 -1.</_>
        <_>
          8 2 2 4 2.</_></rects>
      <tilted>1</tilted></_>
    <_>
      <rects>
        <_>
          7 1 12 1 -1.</_>
        <_>
          13 1 6 1 2.</_></rects>
      <tilted>0</tilted></_>
    <_>
      <rects>
        <_>
          7 4 6 2 -1.</_>
        <_>
          7 4 3 1 2.</_>
        <_>
          10 5 3 1 2.</_></rects>
      <tilted>0</tilted></_>
    <_>
      <rects>
        <_>
          7 5 8 6 -1.</_>
        <_>
          9 5 4 6 2.</_></rects>
      <tilted>0</tilted></_>
    <_>
      <rects>
        <_>
          7 5 8 2 -1.</_>
        <_>
          7 5 8 1 2.</_></rects>
      <tilted>1</tilted></_>
    <_>
      <rects>
        <_>
          7 7 3 3 -1.</_>
        <_>
          8 8 1 1 9.</_></rects>
      <tilted>0</tilted></_>
    <_>
      <rects>
        <_>
          7 7 4 1 -1.</_>
        <_>
          8 8 2 1 2.</_></rects>
      <tilted>1</tilted></_>
    <_>
      <rects>
        <_>
          7 7 9 5 -1.</_>
        <_>
          10 7 3 5 3.</_></rects>
      <tilted>0</tilted></_>
    <_>
      <rects>
        <_>
          7 9 12 8 -1.</_>
        <_>
          7 9 6 4 2.</_>
        <_>
          13 13 6 4 2.</_></rects>
      <tilted>0</tilted></_>
    <_>
      <rects>
        <_>
          8 0 2 7 -1.</_>
        <_>
          8 0 1 7 2.</_></rects>
      <tilted>1</tilted></_>
    <_>
      <rects>
        <_>
          8 0 4 3 -1.</_>
        <_>
          10 0 2 3 2.</_></rects>
      <tilted>0</tilted></_>
    <_>
      <rects>
        <_>
          8 0 3 4 -1.</_>
        <_>
          8 1 3 2 2.</_></rects>
      <tilted>0</tilted></_>
    <_>
      <rects>
        <_>
          8 0 4 3 -1.</_>
        <_>
          8 1 4 1 3.</_></rects>
      <tilted>0</tilted></_>
    <_>
      <rects>
        <_>
          8 0 4 20 -1.</_>
        <_>
          8 10 4 10 2.</_></rects>
      <tilted>0</tilted></_>
    <_>
      <rects>
        <_>
          8 0 6 3 -1.</_>
        <_>
          8 1 6 1 3.</_></rects>
      <tilted>0</tilted></_>
    <_>
      <rects>
        <_>
          8 0 8 4 -1.</_>
        <_>
          8 1 8 2 2.</_></rects>
      <tilted>0</tilted></_>
    <_>
      <rects>
        <_>
          8 6 2 10 -1.</_>
        <_>
          8 6 1 5 2.</_>
        <_>
          9 11 1 5 2.</_></rects>
      <tilted>0</tilted></_>
    <_>
      <rects>
        <_>
          8 7 3 12 -1.</_>
        <_>
          9 11 1 4 9.</_></rects>
      <tilted>0</tilted></_>
    <_>
      <rects>
        <_>
          8 7 8 8 -1.</_>
        <_>
          8 9 8 4 2.</_></rects>
      <tilted>0</tilted></_>
    <_>
      <rects>
        <_>
          8 8 2 4 -1.</_>
        <_>
          7 9 2 2 2.</_></rects>
      <tilted>1</tilted></_>
    <_>
      <rects>
        <_>
          8 11 1 9 -1.</_>
        <_>
          8 14 1 3 3.</_></rects>
      <tilted>0</tilted></_>
    <_>
      <rects>
        <_>
          8 12 12 8 -1.</_>
        <_>
          11 12 6 8 2.</_></rects>
      <tilted>0</tilted></_>
    <_>
      <rects>
        <_>
          9 0 2 4 -1.</_>
        <_>
          9 0 1 2 2.</_>
        <_>
          10 2 1 2 2.</_></rects>
      <tilted>0</tilted></_>
    <_>
      <rects>
        <_>
          9 7 9 13 -1.</_>
        <_>
          12 7 3 13 3.</_></rects>
      <tilted>0</tilted></_>
    <_>
      <rects>
        <_>
          9 8 3 8 -1.</_>
        <_>
          7 10 3 4 2.</_></rects>
      <tilted>1</tilted></_>
    <_>
      <rects>
        <_>
          9 9 1 6 -1.</_>
        <_>
          7 11 1 2 3.</_></rects>
      <tilted>1</tilted></_>
    <_>
      <rects>
        <_>
          9 9 7 2 -1.</_>
        <_>
          9 9 7 1 2.</_></rects>
      <tilted>1</tilted></_>
    <_>
      <rects>
        <_>
          9 17 5 3 -1.</_>
        <_>
          9 18 5 1 3.</_></rects>
      <tilted>0</tilted></_>
    <_>
      <rects>
        <_>
          10 0 10 5 -1.</_>
        <_>
          15 0 5 5 2.</_></rects>
      <tilted>0</tilted></_>
    <_>
      <rects>
        <_>
          10 5 3 8 -1.</_>
        <_>
          8 7 3 4 2.</_></rects>
      <tilted>1</tilted></_>
    <_>
      <rects>
        <_>
          10 7 1 4 -1.</_>
        <_>
          10 7 1 2 2.</_></rects>
      <tilted>1</tilted></_>
    <_>
      <rects>
        <_>
          10 7 6 9 -1.</_>
        <_>
          12 10 2 3 9.</_></rects>
      <tilted>0</tilted></_>
    <_>
      <rects>
        <_>
          10 9 4 9 -1.</_>
        <_>
          10 12 4 3 3.</_></rects>
      <tilted>0</tilted></_>
    <_>
      <rects>
        <_>
          10 17 8 2 -1.</_>
        <_>
          10 18 8 1 2.</_></rects>
      <tilted>0</tilted></_>
    <_>
      <rects>
        <_>
          10 18 4 1 -1.</_>
        <_>
          12 18 2 1 2.</_></rects>
      <tilted>0</tilted></_>
    <_>
      <rects>
        <_>
          11 2 4 8 -1.</_>
        <_>
          12 2 2 8 2.</_></rects>
      <tilted>0</tilted></_>
    <_>
      <rects>
        <_>
          11 3 1 8 -1.</_>
        <_>
          11 7 1 4 2.</_></rects>
      <tilted>0</tilted></_>
    <_>
      <rects>
        <_>
          11 3 2 6 -1.</_>
        <_>
          11 5 2 2 3.</_></rects>
      <tilted>0</tilted></_>
    <_>
      <rects>
        <_>
          11 4 4 2 -1.</_>
        <_>
          11 5 4 1 2.</_></rects>
      <tilted>0</tilted></_>
    <_>
      <rects>
        <_>
          11 7 4 8 -1.</_>
        <_>
          11 9 4 4 2.</_></rects>
      <tilted>0</tilted></_>
    <_>
      <rects>
        <_>
          11 8 3 3 -1.</_>
        <_>
          12 9 1 1 9.</_></rects>
      <tilted>0</tilted></_>
    <_>
      <rects>
        <_>
          11 10 1 3 -1.</_>
        <_>
          10 11 1 1 3.</_></rects>
      <tilted>1</tilted></_>
    <_>
      <rects>
        <_>
          11 10 2 8 -1.</_>
        <_>
          9 12 2 4 2.</_></rects>
      <tilted>1</tilted></_>
    <_>
      <rects>
        <_>
          12 0 8 1 -1.</_>
        <_>
          12 0 4 1 2.</_></rects>
      <tilted>1</tilted></_>
    <_>
      <rects>
        <_>
          12 0 8 8 -1.</_>
        <_>
          12 2 8 4 2.</_></rects>
      <tilted>0</tilted></_>
    <_>
      <rects>
        <_>
          12 2 1 9 -1.</_>
        <_>
          12 5 1 3 3.</_></rects>
      <tilted>0</tilted></_>
    <_>
      <rects>
        <_>
          12 4 4 12 -1.</_>
        <_>
          13 5 2 12 2.</_></rects>
      <tilted>1</tilted></_>
    <_>
      <rects>
        <_>
          12 7 1 8 -1.</_>
        <_>
          12 9 1 4 2.</_></rects>
      <tilted>0</tilted></_>
    <_>
      <rects>
        <_>
          12 7 8 1 -1.</_>
        <_>
          14 9 4 1 2.</_></rects>
      <tilted>1</tilted></_>
    <_>
      <rects>
        <_>
          12 8 8 4 -1.</_>
        <_>
          14 10 4 4 2.</_></rects>
      <tilted>1</tilted></_>
    <_>
      <rects>
        <_>
          12 9 8 8 -1.</_>
        <_>
          12 9 4 4 2.</_>
        <_>
          16 13 4 4 2.</_></rects>
      <tilted>0</tilted></_>
    <_>
      <rects>
        <_>
          12 10 6 2 -1.</_>
        <_>
          14 10 2 2 3.</_></rects>
      <tilted>0</tilted></_>
    <_>
      <rects>
        <_>
          12 10 8 3 -1.</_>
        <_>
          16 10 4 3 2.</_></rects>
      <tilted>0</tilted></_>
    <_>
      <rects>
        <_>
          12 11 1 4 -1.</_>
        <_>
          12 12 1 2 2.</_></rects>
      <tilted>0</tilted></_>
    <_>
      <rects>
        <_>
          12 13 6 5 -1.</_>
        <_>
          15 13 3 5 2.</_></rects>
      <tilted>0</tilted></_>
    <_>
      <rects>
        <_>
          13 0 6 3 -1.</_>
        <_>
          15 1 2 1 9.</_></rects>
      <tilted>0</tilted></_>
    <_>
      <rects>
        <_>
          13 1 2 16 -1.</_>
        <_>
          14 1 1 16 2.</_></rects>
      <tilted>0</tilted></_>
    <_>
      <rects>
        <_>
          13 1 6 3 -1.</_>
        <_>
          12 2 6 1 3.</_></rects>
      <tilted>1</tilted></_>
    <_>
      <rects>
        <_>
          13 1 7 14 -1.</_>
        <_>
          13 8 7 7 2.</_></rects>
      <tilted>0</tilted></_>
    <_>
      <rects>
        <_>
          13 2 2 10 -1.</_>
        <_>
          13 7 2 5 2.</_></rects>
      <tilted>0</tilted></_>
    <_>
      <rects>
        <_>
          13 2 6 10 -1.</_>
        <_>
          13 2 3 5 2.</_>
        <_>
          16 7 3 5 2.</_></rects>
      <tilted>0</tilted></_>
    <_>
      <rects>
        <_>
          13 2 6 12 -1.</_>
        <_>
          13 2 3 12 2.</_></rects>
      <tilted>1</tilted></_>
    <_>
      <rects>
        <_>
          13 5 6 3 -1.</_>
        <_>
          15 7 2 3 3.</_></rects>
      <tilted>1</tilted></_>
    <_>
      <rects>
        <_>
          13 7 6 3 -1.</_>
        <_>
          15 7 2 3 3.</_></rects>
      <tilted>0</tilted></_>
    <_>
      <rects>
        <_>
          13 9 1 6 -1.</_>
        <_>
          13 11 1 2 3.</_></rects>
      <tilted>0</tilted></_>
    <_>
      <rects>
        <_>
          13 10 2 2 -1.</_>
        <_>
          14 10 1 2 2.</_></rects>
      <tilted>0</tilted></_>
    <_>
      <rects>
        <_>
          13 10 2 4 -1.</_>
        <_>
          13 12 2 2 2.</_></rects>
      <tilted>0</tilted></_>
    <_>
      <rects>
        <_>
          13 10 6 1 -1.</_>
        <_>
          13 10 3 1 2.</_></rects>
      <tilted>1</tilted></_>
    <_>
      <rects>
        <_>
          13 12 3 8 -1.</_>
        <_>
          13 14 3 4 2.</_></rects>
      <tilted>0</tilted></_>
    <_>
      <rects>
        <_>
          14 0 6 2 -1.</_>
        <_>
          14 0 3 2 2.</_></rects>
      <tilted>1</tilted></_>
    <_>
      <rects>
        <_>
          14 3 3 8 -1.</_>
        <_>
          15 3 1 8 3.</_></rects>
      <tilted>0</tilted></_>
    <_>
      <rects>
        <_>
          14 3 6 8 -1.</_>
        <_>
          14 3 3 4 2.</_>
        <_>
          17 7 3 4 2.</_></rects>
      <tilted>0</tilted></_>
    <_>
      <rects>
        <_>
          14 9 6 4 -1.</_>
        <_>
          16 9 2 4 3.</_></rects>
      <tilted>0</tilted></_>
    <_>
      <rects>
        <_>
          15 0 4 2 -1.</_>
        <_>
          16 1 2 2 2.</_></rects>
      <tilted>1</tilted></_>
    <_>
      <rects>
        <_>
          15 2 3 1 -1.</_>
        <_>
          16 2 1 1 3.</_></rects>
      <tilted>0</tilted></_>
    <_>
      <rects>
        <_>
          15 2 4 1 -1.</_>
        <_>
          15 2 2 1 2.</_></rects>
      <tilted>1</tilted></_>
    <_>
      <rects>
        <_>
          15 6 4 8 -1.</_>
        <_>
          15 8 4 4 2.</_></rects>
      <tilted>0</tilted></_>
    <_>
      <rects>
        <_>
          15 7 4 3 -1.</_>
        <_>
          14 8 4 1 3.</_></rects>
      <tilted>1</tilted></_>
    <_>
      <rects>
        <_>
          15 10 4 3 -1.</_>
        <_>
          16 10 2 3 2.</_></rects>
      <tilted>0</tilted></_>
    <_>
      <rects>
        <_>
          15 10 4 8 -1.</_>
        <_>
          15 10 2 4 2.</_>
        <_>
          17 14 2 4 2.</_></rects>
      <tilted>0</tilted></_>
    <_>
      <rects>
        <_>
          16 0 2 1 -1.</_>
        <_>
          17 0 1 1 2.</_></rects>
      <tilted>0</tilted></_>
    <_>
      <rects>
        <_>
          16 0 3 1 -1.</_>
        <_>
          17 0 1 1 3.</_></rects>
      <tilted>0</tilted></_>
    <_>
      <rects>
        <_>
          16 0 4 1 -1.</_>
        <_>
          17 0 2 1 2.</_></rects>
      <tilted>0</tilted></_>
    <_>
      <rects>
        <_>
          16 0 4 4 -1.</_>
        <_>
          15 1 4 2 2.</_></rects>
      <tilted>1</tilted></_>
    <_>
      <rects>
        <_>
          16 2 2 4 -1.</_>
        <_>
          16 2 1 4 2.</_></rects>
      <tilted>1</tilted></_>
    <_>
      <rects>
        <_>
          16 2 2 4 -1.</_>
        <_>
          15 3 2 2 2.</_></rects>
      <tilted>1</tilted></_>
    <_>
      <rects>
        <_>
          16 2 4 2 -1.</_>
        <_>
          16 2 2 2 2.</_></rects>
      <tilted>1</tilted></_>
    <_>
      <rects>
        <_>
          16 3 2 4 -1.</_>
        <_>
          15 4 2 2 2.</_></rects>
      <tilted>1</tilted></_>
    <_>
      <rects>
        <_>
          16 3 4 16 -1.</_>
        <_>
          18 3 2 16 2.</_></rects>
      <tilted>0</tilted></_>
    <_>
      <rects>
        <_>
          16 7 3 6 -1.</_>
        <_>
          17 8 1 6 3.</_></rects>
      <tilted>1</tilted></_>
    <_>
      <rects>
        <_>
          16 7 2 4 -1.</_>
        <_>
          15 8 2 2 2.</_></rects>
      <tilted>1</tilted></_>
    <_>
      <rects>
        <_>
          16 8 3 4 -1.</_>
        <_>
          17 8 1 4 3.</_></rects>
      <tilted>0</tilted></_>
    <_>
      <rects>
        <_>
          16 8 4 5 -1.</_>
        <_>
          17 8 2 5 2.</_></rects>
      <tilted>0</tilted></_>
    <_>
      <rects>
        <_>
          16 8 4 8 -1.</_>
        <_>
          17 8 2 8 2.</_></rects>
      <tilted>0</tilted></_>
    <_>
      <rects>
        <_>
          16 8 4 8 -1.</_>
        <_>
          16 8 2 4 2.</_>
        <_>
          18 12 2 4 2.</_></rects>
      <tilted>0</tilted></_>
    <_>
      <rects>
        <_>
          16 9 4 8 -1.</_>
        <_>
          16 9 2 4 2.</_>
        <_>
          18 13 2 4 2.</_></rects>
      <tilted>0</tilted></_>
    <_>
      <rects>
        <_>
          16 9 4 10 -1.</_>
        <_>
          16 9 2 5 2.</_>
        <_>
          18 14 2 5 2.</_></rects>
      <tilted>0</tilted></_>
    <_>
      <rects>
        <_>
          16 9 4 5 -1.</_>
        <_>
          16 9 2 5 2.</_></rects>
      <tilted>1</tilted></_>
    <_>
      <rects>
        <_>
          16 9 4 8 -1.</_>
        <_>
          18 9 2 8 2.</_></rects>
      <tilted>0</tilted></_>
    <_>
      <rects>
        <_>
          16 13 2 6 -1.</_>
        <_>
          16 13 1 3 2.</_>
        <_>
          17 16 1 3 2.</_></rects>
      <tilted>0</tilted></_>
    <_>
      <rects>
        <_>
          16 15 3 4 -1.</_>
        <_>
          17 15 1 4 3.</_></rects>
      <tilted>0</tilted></_>
    <_>
      <rects>
        <_>
          17 2 2 3 -1.</_>
        <_>
          17 2 1 3 2.</_></rects>
      <tilted>1</tilted></_>
    <_>
      <rects>
        <_>
          17 3 2 8 -1.</_>
        <_>
          17 3 1 4 2.</_>
        <_>
          18 7 1 4 2.</_></rects>
      <tilted>0</tilted></_>
    <_>
      <rects>
        <_>
          17 3 3 3 -1.</_>
        <_>
          17 4 3 1 3.</_></rects>
      <tilted>0</tilted></_>
    <_>
      <rects>
        <_>
          17 6 3 6 -1.</_>
        <_>
          17 8 3 2 3.</_></rects>
      <tilted>0</tilted></_>
    <_>
      <rects>
        <_>
          17 8 3 6 -1.</_>
        <_>
          17 10 3 2 3.</_></rects>
      <tilted>0</tilted></_>
    <_>
      <rects>
        <_>
          18 1 2 3 -1.</_>
        <_>
          17 2 2 1 3.</_></rects>
      <tilted>1</tilted></_>
    <_>
      <rects>
        <_>
          18 2 1 3 -1.</_>
        <_>
          17 3 1 1 3.</_></rects>
      <tilted>1</tilted></_>
    <_>
      <rects>
        <_>
          18 5 2 6 -1.</_>
        <_>
          19 5 1 6 2.</_></rects>
      <tilted>0</tilted></_>
    <_>
      <rects>
        <_>
          18 7 2 3 -1.</_>
        <_>
          18 8 2 1 3.</_></rects>
      <tilted>0</tilted></_>
    <_>
      <rects>
        <_>
          18 9 2 3 -1.</_>
        <_>
          18 10 2 1 3.</_></rects>
      <tilted>0</tilted></_>
    <_>
      <rects>
        <_>
          18 10 2 3 -1.</_>
        <_>
          18 11 2 1 3.</_></rects>
      <tilted>0</tilted></_>
    <_>
      <rects>
        <_>
          18 12 2 6 -1.</_>
        <_>
          18 12 2 3 2.</_></rects>
      <tilted>1</tilted></_>
    <_>
      <rects>
        <_>
          19 0 1 2 -1.</_>
        <_>
          19 1 1 1 2.</_></rects>
      <tilted>0</tilted></_>
    <_>
      <rects>
        <_>
          19 0 1 4 -1.</_>
        <_>
          19 1 1 2 2.</_></rects>
      <tilted>0</tilted></_>
    <_>
      <rects>
        <_>
          19 2 1 2 -1.</_>
        <_>
          19 3 1 1 2.</_></rects>
      <tilted>0</tilted></_>
    <_>
      <rects>
        <_>
          19 4 1 14 -1.</_>
        <_>
          19 11 1 7 2.</_></rects>
      <tilted>0</tilted></_>
    <_>
      <rects>
        <_>
          19 7 1 2 -1.</_>
        <_>
          19 8 1 1 2.</_></rects>
      <tilted>0</tilted></_>
    <_>
      <rects>
        <_>
          19 7 1 3 -1.</_>
        <_>
          19 8 1 1 3.</_></rects>
      <tilted>0</tilted></_>
    <_>
      <rects>
        <_>
          19 9 1 4 -1.</_>
        <_>
          19 11 1 2 2.</_></rects>
      <tilted>0</tilted></_></features></cascade>
</opencv_storage>
