<?xml version="1.0"?>
<opencv_storage>
<stage3>
  <maxWeakCount>6</maxWeakCount>
  <stageThreshold>-1.6437180042266846e+00</stageThreshold>
  <weakClassifiers>
    <_>
      <internalNodes>
        0 -1 60604 1.0917047411203384e-01</internalNodes>
      <leafValues>
        -7.0731705427169800e-01 8.5507243871688843e-01</leafValues></_>
    <_>
      <internalNodes>
        0 -1 56055 -9.6657164394855499e-02</internalNodes>
      <leafValues>
        7.1958732604980469e-01 -2.9688677191734314e-01</leafValues></_>
    <_>
      <internalNodes>
        0 -1 53666 9.9329814314842224e-02</internalNodes>
      <leafValues>
        -1.5266212821006775e-01 9.3489277362823486e-01</leafValues></_>
    <_>
      <internalNodes>
        0 -1 103427 -2.1132528781890869e-03</internalNodes>
      <leafValues>
        -6.3833045959472656e-01 2.6426792144775391e-01</leafValues></_>
    <_>
      <internalNodes>
        0 -1 14670 1.7982006072998047e-01</internalNodes>
      <leafValues>
        -2.0494779944419861e-01 9.0342652797698975e-01</leafValues></_>
    <_>
      <internalNodes>
        0 -1 33 5.4023186676204205e-03</internalNodes>
      <leafValues>
        2.4033343791961670e-01 -7.3112869262695313e-01</leafValues></_></weakClassifiers></stage3>
</opencv_storage>
