<?xml version="1.0"?>
<opencv_storage>
<stage2>
  <maxWeakCount>7</maxWeakCount>
  <stageThreshold>-1.4824752807617188e+00</stageThreshold>
  <weakClassifiers>
    <_>
      <internalNodes>
        0 -1 68764 9.6525117754936218e-02</internalNodes>
      <leafValues>
        -7.3712253570556641e-01 8.5321098566055298e-01</leafValues></_>
    <_>
      <internalNodes>
        0 -1 69317 1.2482045590877533e-01</internalNodes>
      <leafValues>
        -3.1821691989898682e-01 9.7197830677032471e-01</leafValues></_>
    <_>
      <internalNodes>
        0 -1 99939 -9.9195807706564665e-04</internalNodes>
      <leafValues>
        -6.9145143032073975e-01 3.6543864011764526e-01</leafValues></_>
    <_>
      <internalNodes>
        0 -1 35203 -7.7831000089645386e-02</internalNodes>
      <leafValues>
        7.9378741979598999e-01 -3.2304126024246216e-01</leafValues></_>
    <_>
      <internalNodes>
        0 -1 92994 -3.3698648214340210e-02</internalNodes>
      <leafValues>
        6.8115919828414917e-01 -1.8576964735984802e-01</leafValues></_>
    <_>
      <internalNodes>
        0 -1 86263 -1.0579216759651899e-03</internalNodes>
      <leafValues>
        -5.6342643499374390e-01 2.9867908358573914e-01</leafValues></_>
    <_>
      <internalNodes>
        0 -1 1075 -1.5282882377505302e-03</internalNodes>
      <leafValues>
        -5.8473587036132813e-01 2.7966281771659851e-01</leafValues></_></weakClassifiers></stage2>
</opencv_storage>
