<?xml version="1.0"?>
<opencv_storage>
<stage0>
  <maxWeakCount>5</maxWeakCount>
  <stageThreshold>-1.2711561918258667e+00</stageThreshold>
  <weakClassifiers>
    <_>
      <internalNodes>
        0 -1 89734 6.6406853497028351e-02</internalNodes>
      <leafValues>
        -7.6190477609634399e-01 7.9574465751647949e-01</leafValues></_>
    <_>
      <internalNodes>
        0 -1 69983 1.5034490264952183e-02</internalNodes>
      <leafValues>
        -4.9705764651298523e-01 6.2466788291931152e-01</leafValues></_>
    <_>
      <internalNodes>
        0 -1 123237 -6.1171823181211948e-03</internalNodes>
      <leafValues>
        6.8595796823501587e-01 -3.5480266809463501e-01</leafValues></_>
    <_>
      <internalNodes>
        0 -1 120861 6.1478316783905029e-03</internalNodes>
      <leafValues>
        -3.6163228750228882e-01 7.2455173730850220e-01</leafValues></_>
    <_>
      <internalNodes>
        0 -1 56754 -1.6244139522314072e-02</internalNodes>
      <leafValues>
        7.3280382156372070e-01 -3.3651947975158691e-01</leafValues></_></weakClassifiers></stage0>
</opencv_storage>
